{"learner":{"attributes":{"best_iteration":"153","best_score":"0.9950105942324661","scikit_learn":"{\"_estimator_type\": \"classifier\"}"},"feature_names":["month","day_of_year","season","monsoon_indicator","province","district","latitude","longitude","elevation_m","basin","river_system","daily_rainfall_mm","rainfall_3day_mm","rainfall_7day_mm","tmax_c","tmin_c","relative_humidity_pct","wind_speed_kmh","soil_moisture_pct","river_discharge_m3s","water_level_m","reservoir_level_pct","streamflow_anomaly_pct","ndvi","land_cover_type","population_density_km2","built_up_area_pct","agricultural_land_pct","road_density_km_km2","critical_infrastructure_count","rainfall_anomaly_mm","antecedent_rainfall_index","rain_return_period_yr","discharge_change_rate_m3s","lag1_rainfall_mm","lag3_rainfall_mm","lag7_rainfall_mm"],"feature_types":["int","int","int","int","int","int","float","float","int","int","int","float","float","float","float","float","float","float","float","float","float","float","float","float","int","int","float","float","float","int","float","float","float","float","float","float","float"],"gradient_booster":{"model":{"cats":{"enc":[],"feature_segments":[],"sorted_idx":[]},"gbtree_model_param":{"num_parallel_tree":"1","num_trees":"204"},"iteration_indptr":[0,1,2,3,4,5,6,7,8,9,10,11,12,13,14,15,16,17,18,19,20,21,22,23,24,25,26,27,28,29,30,31,32,33,34,35,36,37,38,39,40,41,42,43,44,45,46,47,48,49,50,51,52,53,54,55,56,57,58,59,60,61,62,63,64,65,66,67,68,69,70,71,72,73,74,75,76,77,78,79,80,81,82,83,84,85,86,87,88,89,90,91,92,93,94,95,96,97,98,99,100,101,102,103,104,105,106,107,108,109,110,111,112,113,114,115,116,117,118,119,120,121,122,123,124,125,126,127,128,129,130,131,132,133,134,135,136,137,138,139,140,141,142,143,144,145,146,147,148,149,150,151,152,153,154,155,156,157,158,159,160,161,162,163,164,165,166,167,168,169,170,171,172,173,174,175,176,177,178,179,180,181,182,183,184,185,186,187,188,189,190,191,192,193,194,195,196,197,198,199,200,201,202,203,204],"tree_info":[0,0,0,0,0,0,0,0,0,0,0,0,0,0,0,0,0,0,0,0,0,0,0,0,0,0,0,0,0,0,0,0,0,0,0,0,0,0,0,0,0,0,0,0,0,0,0,0,0,0,0,0,0,0,0,0,0,0,0,0,0,0,0,0,0,0,0,0,0,0,0,0,0,0,0,0,0,0,0,0,0,0,0,0,0,0,0,0,0,0,0,0,0,0,0,0,0,0,0,0,0,0,0,0,0,0,0,0,0,0,0,0,0,0,0,0,0,0,0,0,0,0,0,0,0,0,0,0,0,0,0,0,0,0,0,0,0,0,0,0,0,0,0,0,0,0,0,0,0,0,0,0,0,0,0,0,0,0,0,0,0,0,0,0,0,0,0,0,0,0,0,0,0,0,0,0,0,0,0,0,0,0,0,0,0,0,0,0,0,0,0,0,0,0,0,0,0,0,0,0,0,0,0,0],"trees":[{"base_weights":[-2.108768E-8,-1.8816477E0,1.4529619E0,-1.9419659E0,-8.406489E-1,-2.1614562E-1,1.6945246E0,-1.4514122E0,-9.958044E-2,1.3477381E0,-1.7678248E0,1.6470978E0,-5.1196474E-1,1.2360415E0,1.9160362E0,-1.9572548E0,1.2360331E0,1.8339993E0,-7.777778E-2,-1.9143745E0,8.012553E-1,1.8289984E0,-6.363636E-2,1.1362445E0,-7.878599E-1,1.3838284E0,-1.7901403E-1,-1.0148803E0,1.9270855E0,-9.916318E-2,-6.2673336E-1,1.7538308E0,-7.647059E-2,1.33077E-2,9.5611975E-2,-9.82906E-2,-5.30215E-1,1.33077E-2,4.762606E-2,1.8815881E0,1.33077E-2,-6.169362E-1,1.47295E0,-1.7086496E0,-2.4725012E-1,1.5517256E0,4.7860813E-1,1.3721122E0,-1.3591206E0,-7.647059E-2,2.7078623E-2,1.934257E0,-6.923077E-2,-6.363636E-2,2.7078623E-2,2.5684148E-2,9.442811E-2,2.7078623E-2,-6.0000002E-2,9.541612E-2,2.7078623E-2,-7.777778E-2,6.1744746E-2,8.1062965E-2,-1.4490959E-2,-1.8532488E-2,-9.1302715E-2,1.6140444E-2,-3.921134E-2,8.6487785E-2,5.0604373E-2,-5.4054346E-2,4.1287165E-2,9.545088E-2,-7.777778E-2,-9.626168E-2,4.072755E-2,8.964012E-2,9.932615E-2],"categories":[],"categories_nodes":[],"categories_segments":[],"categories_sizes":[],"default_left":[0,1,0,0,0,0,0,0,0,0,0,0,0,0,0,0,0,0,0,1,0,0,0,0,0,0,0,0,0,0,0,0,0,0,0,0,0,0,0,0,0,0,0,0,0,0,0,0,1,0,0,0,0,0,0,0,0,0,0,0,0,0,0,0,0,0,0,0,0,0,0,0,0,0,0,0,0,0,0],"id":0,"left_children":[1,3,5,7,9,11,13,15,-1,17,19,21,23,25,27,29,31,33,-1,35,37,39,-1,41,43,45,47,49,51,-1,53,55,-1,-1,-1,-1,57,-1,-1,59,-1,61,63,65,67,69,71,73,75,-1,-1,77,-1,-1,-1,-1,-1,-1,-1,-1,-1,-1,-1,-1,-1,-1,-1,-1,-1,-1,-1,-1,-1,-1,-1,-1,-1,-1,-1],"loss_changes":[1.0203147E4,1.00473145E2,8.4944824E2,3.4521973E1,1.8666687E2,1.4808105E2,1.8447559E2,1.9935663E2,0E0,4.181218E1,2.5715622E1,2.1892822E1,1.06071785E2,1.2616858E2,4.206836E1,2.9894714E0,3.642062E1,2.446907E0,0E0,3.3048248E0,8.409691E-2,2.3830261E0,0E0,2.0727829E1,9.849733E1,8.213464E1,1.07711945E2,5.078373E0,3.1993652E1,0E0,3.5624948E0,2.4236107E0,0E0,0E0,0E0,0E0,3.2033474E0,0E0,0E0,1.7665863E-1,0E0,1.25481205E1,7.910389E0,1.0844284E1,3.893811E1,4.2398193E1,4.786817E1,4.302465E1,4.2597065E1,0E0,0E0,5.5473633E0,0E0,0E0,0E0,0E0,0E0,0E0,0E0,0E0,0E0,0E0,0E0,0E0,0E0,0E0,0E0,0E0,0E0,0E0,0E0,0E0,0E0,0E0,0E0,0E0,0E0,0E0,0E0],"parents":[2147483647,0,0,1,1,2,2,3,3,4,4,5,5,6,6,7,7,9,9,10,10,11,11,12,12,13,13,14,14,15,15,16,16,17,17,19,19,20,20,21,21,23,23,24,24,25,25,26,26,27,27,28,28,30,30,31,31,36,36,39,39,41,41,42,42,43,43,44,44,45,45,46,46,47,47,48,48,51,51],"right_children":[2,4,6,8,10,12,14,16,-1,18,20,22,24,26,28,30,32,34,-1,36,38,40,-1,42,44,46,48,50,52,-1,54,56,-1,-1,-1,-1,58,-1,-1,60,-1,62,64,66,68,70,72,74,76,-1,-1,78,-1,-1,-1,-1,-1,-1,-1,-1,-1,-1,-1,-1,-1,-1,-1,-1,-1,-1,-1,-1,-1,-1,-1,-1,-1,-1,-1],"split_conditions":[6.57E2,5.54E1,1.618E2,6.773E1,7.77E2,1.088E3,7.181E3,1.8E2,-9.958044E-2,2E-1,2.233E2,3.019E1,2E0,3.437E1,9.34E0,1.61E2,2E-1,2.22E0,-7.777778E-2,8.46E1,5.22E1,5.9E0,-6.363636E-2,1.019E3,1.163E2,1.642E1,2E-1,3.521E1,1E1,-9.916318E-2,2.52E2,7.98E1,-7.647059E-2,1.33077E-2,9.5611975E-2,-9.82906E-2,3.208E1,1.33077E-2,4.762606E-2,2.67E2,1.33077E-2,6.6E0,3.862E1,2.84E1,4.487E3,4.8E0,6.239E3,1.2E1,1.0882E3,-7.647059E-2,2.7078623E-2,3.376E2,-6.923077E-2,-6.363636E-2,2.7078623E-2,2.5684148E-2,9.442811E-2,2.7078623E-2,-6.0000002E-2,9.541612E-2,2.7078623E-2,-7.777778E-2,6.1744746E-2,8.1062965E-2,-1.4490959E-2,-1.8532488E-2,-9.1302715E-2,1.6140444E-2,-3.921134E-2,8.6487785E-2,5.0604373E-2,-5.4054346E-2,4.1287165E-2,9.545088E-2,-7.777778E-2,-9.626168E-2,4.072755E-2,8.964012E-2,9.932615E-2],"split_indices":[33,22,22,7,19,19,33,33,0,12,22,6,5,6,20,33,12,20,0,21,18,12,0,33,22,20,13,6,0,0,1,21,0,0,0,0,6,0,0,1,0,26,18,27,33,36,33,5,22,0,0,22,0,0,0,0,0,0,0,0,0,0,0,0,0,0,0,0,0,0,0,0,0,0,0,0,0,0,0],"split_type":[0,0,0,0,0,0,0,0,0,0,0,0,0,0,0,0,0,0,0,0,0,0,0,0,0,0,0,0,0,0,0,0,0,0,0,0,0,0,0,0,0,0,0,0,0,0,0,0,0,0,0,0,0,0,0,0,0,0,0,0,0,0,0,0,0,0,0,0,0,0,0,0,0,0,0,0,0,0,0],"sum_hessian":[3.73E3,1.6251135E3,2.1048865E3,1.5352893E3,8.982432E1,2.6613046E2,1.8387559E3,1.4386824E2,1.391421E3,2.659628E1,6.322804E1,3.5837406E1,2.3029306E2,6.01127E2,1.2376289E3,1.2130701E2,2.2561228E1,2.309628E1,3.5E0,6.005701E1,3.1710298E0,3.4087406E1,1.75E0,3.2574318E1,1.9771873E2,5.443027E2,5.6824318E1,4.3070097E0,1.2333219E3,1.185E2,2.80701E0,1.9311228E1,3.25E0,1.3070099E0,2.1789268E1,5.75E1,2.55701E0,1.3070099E0,1.8640199E0,3.2780396E1,1.3070099E0,5.11402E0,2.7460299E1,7.234206E1,1.2537668E2,4.5854E2,8.576266E1,2.4482258E1,3.234206E1,3.25E0,1.0570099E0,1.2310719E3,2.25E0,1.75E0,1.0570099E0,2.3640199E0,1.6947208E1,1.0570099E0,1.5E0,3.1723387E1,1.0570099E0,3.5E0,1.6140199E0,2.5403288E1,2.05701E0,6.17103E0,6.617103E1,6.100844E1,6.436824E1,3.4313293E2,1.15407074E2,1.522804E1,7.0534615E1,2.0982258E1,3.5E0,2.575E1,6.5920596E0,3.41668E2,8.8940393E2],"tree_param":{"num_deleted":"0","num_feature":"37","num_nodes":"79","size_leaf_vector":"1"}},{"base_weights":[-2.6675412E-5,-1.7921665E0,1.3830922E0,-1.8496226E0,-8.00813E-1,-1.07560225E-1,1.6285335E0,-1.3827403E0,-1.8968732E0,1.2840945E0,-1.6843041E0,-9.420393E-1,4.2260727E-1,1.1860282E0,1.8218424E0,-1.8650455E0,1.1782725E0,-9.495855E-2,-1.1762704E0,1.7505014E0,-7.484255E-2,-1.82507E0,7.760128E-1,6.8336204E-3,-1.620009E0,1.1102322E0,-4.910803E-1,1.3353418E0,-1.4042625E-1,-1.0546787E0,1.83374E0,-9.4480485E-2,-6.0532117E-1,1.675255E0,-7.363038E-2,2.9672755E-2,-7.935124E-2,1.2931061E-2,9.124369E-2,-9.368601E-2,-5.1318926E-1,1.2745881E-2,4.6241205E-2,1.0860779E0,-1.2841519E0,-1.7851161E0,-6.2923235E-1,1.2917566E0,-8.078027E-1,-1.1485986E0,8.208781E-1,1.4702525E0,2.5367743E-1,1.3390152E0,-1.2812085E0,2.714157E-2,-7.623688E-2,1.8405278E0,-6.689073E-2,-6.205977E-2,2.69393E-2,1.1388305E-2,8.814223E-2,-5.8663286E-2,2.6916852E-2,-6.476772E-2,6.619856E-2,-8.217529E-2,1.4205434E-3,-9.185619E-2,1.2892586E-2,-8.2769595E-2,3.2263827E-2,8.7423205E-2,4.410697E-2,-8.601413E-2,4.8423093E-2,-8.48353E-2,-1.8073747E-2,5.5418875E-2,-7.155981E-2,8.234961E-2,4.7607668E-2,-7.162168E-2,3.0386766E-2,9.109664E-2,-7.358324E-2,-9.199061E-2,3.988563E-2,8.535408E-2,9.45654E-2],"categories":[],"categories_nodes":[],"categories_segments":[],"categories_sizes":[],"default_left":[0,1,0,0,0,0,0,0,0,0,0,0,0,0,0,0,0,0,0,0,0,1,0,0,0,0,0,0,0,0,0,0,0,0,0,0,0,0,0,0,1,0,0,0,0,0,0,0,0,0,0,0,0,0,0,0,0,0,0,0,0,0,0,0,0,0,0,0,0,0,0,0,0,0,0,0,0,0,0,0,0,0,0,0,0,0,0,0,0,0,0],"id":1,"left_children":[1,3,5,7,9,11,13,15,17,19,21,23,25,27,29,31,33,-1,35,37,-1,39,41,43,45,47,49,51,53,55,57,-1,59,61,-1,-1,-1,-1,-1,-1,63,-1,-1,65,67,69,71,73,75,77,79,81,83,85,87,-1,-1,89,-1,-1,-1,-1,-1,-1,-1,-1,-1,-1,-1,-1,-1,-1,-1,-1,-1,-1,-1,-1,-1,-1,-1,-1,-1,-1,-1,-1,-1,-1,-1,-1,-1],"loss_changes":[9.230788E3,9.091406E1,7.691709E2,3.1185059E1,1.6909923E2,1.32276E2,1.5221924E2,1.8072272E2,6.591797E-2,3.8342632E1,2.3611359E1,7.471002E1,1.15500694E2,1.0943042E2,4.4856934E1,2.631775E0,3.3451054E1,0E0,6.060828E0,2.1961212E0,0E0,2.9263306E0,8.760142E-2,7.020419E1,9.956421E0,3.749936E1,6.931818E1,7.1987E1,9.742811E1,5.1837196E0,2.9358398E1,0E0,3.4369411E0,2.168808E0,0E0,0E0,0E0,0E0,0E0,0E0,3.0994189E0,0E0,0E0,1.7261013E1,1.0869488E1,6.58432E0,1.5741034E1,1.6424133E1,1.7336056E1,2.234626E1,1.9097485E1,3.8782837E1,3.441871E1,3.685825E1,3.924625E1,0E0,0E0,5.2226562E0,0E0,0E0,0E0,0E0,0E0,0E0,0E0,0E0,0E0,0E0,0E0,0E0,0E0,0E0,0E0,0E0,0E0,0E0,0E0,0E0,0E0,0E0,0E0,0E0,0E0,0E0,0E0,0E0,0E0,0E0,0E0,0E0,0E0],"parents":[2147483647,0,0,1,1,2,2,3,3,4,4,5,5,6,6,7,7,8,8,9,9,10,10,11,11,12,12,13,13,14,14,15,15,16,16,18,18,19,19,21,21,22,22,23,23,24,24,25,25,26,26,27,27,28,28,29,29,30,30,32,32,33,33,40,40,43,43,44,44,45,45,46,46,47,47,48,48,49,49,50,50,51,51,52,52,53,53,54,54,57,57],"right_children":[2,4,6,8,10,12,14,16,18,20,22,24,26,28,30,32,34,-1,36,38,-1,40,42,44,46,48,50,52,54,56,58,-1,60,62,-1,-1,-1,-1,-1,-1,64,-1,-1,66,68,70,72,74,76,78,80,82,84,86,88,-1,-1,90,-1,-1,-1,-1,-1,-1,-1,-1,-1,-1,-1,-1,-1,-1,-1,-1,-1,-1,-1,-1,-1,-1,-1,-1,-1,-1,-1,-1,-1,-1,-1,-1,-1],"split_conditions":[6.57E2,5.54E1,1.68E2,6.773E1,7.77E2,1.243E2,7.054E3,1.8E2,8.03E-1,2E-1,2.233E2,2.862E1,7.938E3,3.437E1,9.34E0,1.61E2,2E-1,-9.495855E-2,6.791E1,2.22E0,-7.484255E-2,8.46E1,6.42E0,2.922E3,7E0,6.9E0,6.501E3,1.679E1,2E-1,7.248E1,1E1,-9.4480485E-2,3.57E1,1.94E2,-7.363038E-2,2.9672755E-2,-7.935124E-2,1.2931061E-2,9.124369E-2,-9.368601E-2,1.85E1,1.2745881E-2,4.6241205E-2,2.18E1,1.62E0,2.84E1,1.745E3,1.27E0,2.13E1,9E0,1.43E1,8.2E0,6.111E3,1.2E1,5.194E3,2.714157E-2,-7.623688E-2,3.376E2,-6.689073E-2,-6.205977E-2,2.69393E-2,1.1388305E-2,8.814223E-2,-5.8663286E-2,2.6916852E-2,-6.476772E-2,6.619856E-2,-8.217529E-2,1.4205434E-3,-9.185619E-2,1.2892586E-2,-8.2769595E-2,3.2263827E-2,8.7423205E-2,4.410697E-2,-8.601413E-2,4.8423093E-2,-8.48353E-2,-1.8073747E-2,5.5418875E-2,-7.155981E-2,8.234961E-2,4.7607668E-2,-7.162168E-2,3.0386766E-2,9.109664E-2,-7.358324E-2,-9.199061E-2,3.988563E-2,8.535408E-2,9.45654E-2],"split_indices":[33,22,22,7,19,22,33,33,23,12,22,6,19,6,20,33,12,0,7,20,0,21,20,19,9,12,33,20,13,7,0,0,14,1,0,0,0,0,0,0,17,0,0,15,28,15,19,28,17,0,13,34,33,5,33,0,0,22,0,0,0,0,0,0,0,0,0,0,0,0,0,0,0,0,0,0,0,0,0,0,0,0,0,0,0,0,0,0,0,0,0],"split_type":[0,0,0,0,0,0,0,0,0,0,0,0,0,0,0,0,0,0,0,0,0,0,0,0,0,0,0,0,0,0,0,0,0,0,0,0,0,0,0,0,0,0,0,0,0,0,0,0,0,0,0,0,0,0,0,0,0,0,0,0,0,0,0,0,0,0,0,0,0,0,0,0,0,0,0,0,0,0,0,0,0,0,0,0,0,0,0,0,0,0,0],"sum_hessian":[3.7219802E3,1.621138E3,2.1008423E3,1.53151E3,8.9627945E1,2.9708728E2,1.8037551E3,1.4353256E2,1.3879774E3,2.654121E1,6.308673E1,1.15117096E2,1.819702E2,5.5057153E2,1.2531836E3,1.210142E2,2.251837E1,1.3819354E3,6.0420194E0,2.30465E1,3.4947124E0,5.9916817E1,3.1699152E0,4.8386387E1,6.673071E1,1.0370703E2,7.826317E1,4.948604E2,5.5711132E1,4.800913E0,1.2483826E3,1.1820915E2,2.8050456E0,1.9273117E1,3.245253E0,1.0543939E0,4.9876256E0,1.306952E0,2.1739546E1,5.736135E1,2.5554671E0,1.3068213E0,1.8630939E0,2.6440908E1,2.1945477E1,5.6511646E1,1.0219067E1,9.503899E1,8.668047E0,5.2217617E1,2.604555E1,4.3966403E2,5.519639E1,2.417963E1,3.1531502E1,1.0562837E0,3.7446291E0,1.2461354E3,2.2473059E0,1.7484365E0,1.056609E0,1.3051312E0,1.7967985E1,1.4988298E0,1.0566372E0,1.9977096E0,2.44432E1,1.7030678E1,4.9148E0,5.5207E1,1.3046451E0,5.4955373E0,4.72353E0,4.3391068E1,5.164792E1,5.7471905E0,2.9208562E0,3.0101263E1,2.2116354E1,2.354734E1,2.4982076E0,3.2620605E2,1.1345795E2,9.050398E0,4.614599E1,2.093454E1,3.24509E0,2.4944073E1,6.587428E0,3.5302658E2,8.9310876E2],"tree_param":{"num_deleted":"0","num_feature":"37","num_nodes":"91","size_leaf_vector":"1"}},{"base_weights":[-1.5000123E-4,-1.7147529E0,1.3211673E0,-1.7697828E0,-7.659448E-1,-1.9930954E-1,1.541997E0,-1.3230971E0,-1.8150017E0,1.2280344E0,-1.6112993E0,1.5111191E0,-4.6999657E-1,1.1460869E0,1.7577306E0,-1.7851028E0,1.1262447E0,-9.085928E-2,-1.1288395E0,1.677278E0,-7.21797E-2,-1.7473729E0,7.5192475E-1,1.6792619E0,-5.8948684E-2,1.0329881E0,-7.212259E-1,1.2721874E0,-1.4501704E-1,-8.851642E-1,1.7675623E0,-9.04273E-2,-5.850376E-1,1.6048421E0,-7.104706E-2,-7.661065E-2,2.95766E-2,1.2565704E-2,8.74305E-2,-8.969204E-2,-4.969799E-1,1.238605E-2,4.4782203E-2,1.7281702E0,1.1969915E-2,-6.133946E-1,1.35122E0,-1.5627621E0,-2.2967996E-1,1.4119891E0,4.9165338E-1,1.2187401E0,-1.1673244E0,-6.988894E-2,2.6968269E-2,1.7745097E0,-6.473309E-2,2.6802583E-2,-6.056961E-2,2.229956E-2,8.666047E-2,2.6759014E-2,-5.738982E-2,8.7643184E-2,2.4842804E-2,-7.527688E-2,5.7946235E-2,7.449082E-2,-1.41656445E-2,-1.6338889E-2,-8.36041E-2,1.4237374E-2,-3.573028E-2,7.9714924E-2,5.1519223E-2,3.8713537E-2,-5.156989E-2,8.729427E-2,-7.3443994E-2,-8.82525E-2,4.3205857E-2,8.299099E-3,8.880737E-2],"categories":[],"categories_nodes":[],"categories_segments":[],"categories_sizes":[],"default_left":[0,1,0,0,0,0,0,0,0,0,0,0,0,0,0,0,0,0,1,0,0,1,0,0,0,0,0,0,0,0,0,0,0,0,0,0,0,0,0,0,0,0,0,0,0,0,0,0,0,0,0,0,1,0,0,0,0,0,0,0,0,0,0,0,0,0,0,0,0,0,0,0,0,0,0,0,0,0,0,0,0,0,0],"id":2,"left_children":[1,3,5,7,9,11,13,15,17,19,21,23,25,27,29,31,33,-1,35,37,-1,39,41,43,-1,45,47,49,51,53,55,-1,57,59,-1,-1,-1,-1,-1,-1,61,-1,-1,63,-1,65,67,69,71,73,75,77,79,-1,-1,81,-1,-1,-1,-1,-1,-1,-1,-1,-1,-1,-1,-1,-1,-1,-1,-1,-1,-1,-1,-1,-1,-1,-1,-1,-1,-1,-1],"loss_changes":[8.386057E3,8.276074E1,7.0224316E2,2.8339844E1,1.5381738E2,1.2386836E2,1.5390723E2,1.6450645E2,1.5625E-2,3.5291107E1,2.1795563E1,1.8526802E1,8.7751335E1,1.05483215E2,3.2219727E1,2.351593E0,3.0807734E1,0E0,5.7750607E0,1.9922867E0,0E0,2.6251984E0,8.007622E-2,2.0399628E0,0E0,1.8333961E1,8.1549416E1,6.3612305E1,8.290631E1,4.4334517E0,2.7311035E1,0E0,3.3179734E0,2.2273178E0,0E0,0E0,0E0,0E0,0E0,0E0,3.000257E0,0E0,0E0,1.4879608E-1,0E0,1.1389534E1,6.8357506E0,9.295624E0,3.1678091E1,3.3091064E1,3.999164E1,3.8734825E1,4.27068E1,0E0,0E0,2.7966309E0,0E0,0E0,0E0,0E0,0E0,0E0,0E0,0E0,0E0,0E0,0E0,0E0,0E0,0E0,0E0,0E0,0E0,0E0,0E0,0E0,0E0,0E0,0E0,0E0,0E0,0E0,0E0],"parents":[2147483647,0,0,1,1,2,2,3,3,4,4,5,5,6,6,7,7,8,8,9,9,10,10,11,11,12,12,13,13,14,14,15,15,16,16,18,18,19,19,21,21,22,22,23,23,25,25,26,26,27,27,28,28,29,29,30,30,32,32,33,33,40,40,43,43,45,45,46,46,47,47,48,48,49,49,50,50,51,51,52,52,55,55],"right_children":[2,4,6,8,10,12,14,16,18,20,22,24,26,28,30,32,34,-1,36,38,-1,40,42,44,-1,46,48,50,52,54,56,-1,58,60,-1,-1,-1,-1,-1,-1,62,-1,-1,64,-1,66,68,70,72,74,76,78,80,-1,-1,82,-1,-1,-1,-1,-1,-1,-1,-1,-1,-1,-1,-1,-1,-1,-1,-1,-1,-1,-1,-1,-1,-1,-1,-1,-1,-1,-1],"split_conditions":[6.57E2,5.54E1,1.618E2,6.773E1,7.77E2,1.088E3,7.415E3,1.8E2,8.03E-1,2E-1,2.233E2,3.019E1,2E0,3.437E1,9.34E0,1.61E2,2E-1,-9.085928E-2,2.18E1,2.22E0,-7.21797E-2,8.46E1,6.42E0,5.9E0,-5.8948684E-2,1.019E3,1.163E2,1.712E1,2E-1,1.1E1,1E1,-9.04273E-2,6.23E1,7.98E1,-7.104706E-2,-7.661065E-2,2.95766E-2,1.2565704E-2,8.74305E-2,-8.969204E-2,3.35E1,1.238605E-2,4.4782203E-2,2.67E2,1.1969915E-2,6.6E0,3.862E1,2.84E1,4.487E3,5.8E0,3.2E0,1.2E1,1.0882E3,-6.988894E-2,2.6968269E-2,6.35E1,-6.473309E-2,2.6802583E-2,-6.056961E-2,2.229956E-2,8.666047E-2,2.6759014E-2,-5.738982E-2,8.7643184E-2,2.4842804E-2,-7.527688E-2,5.7946235E-2,7.449082E-2,-1.41656445E-2,-1.6338889E-2,-8.36041E-2,1.4237374E-2,-3.573028E-2,7.9714924E-2,5.1519223E-2,3.8713537E-2,-5.156989E-2,8.729427E-2,-7.3443994E-2,-8.82525E-2,4.3205857E-2,8.299099E-3,8.880737E-2],"split_indices":[33,22,22,7,19,19,33,33,23,12,22,6,5,6,20,33,12,0,17,20,0,21,20,12,0,33,22,20,13,15,0,0,16,21,0,0,0,0,0,0,18,0,0,1,0,26,18,27,33,11,34,5,22,0,0,21,0,0,0,0,0,0,0,0,0,0,0,0,0,0,0,0,0,0,0,0,0,0,0,0,0,0,0],"split_type":[0,0,0,0,0,0,0,0,0,0,0,0,0,0,0,0,0,0,0,0,0,0,0,0,0,0,0,0,0,0,0,0,0,0,0,0,0,0,0,0,0,0,0,0,0,0,0,0,0,0,0,0,0,0,0,0,0,0,0,0,0,0,0,0,0,0,0,0,0,0,0,0,0,0,0,0,0,0,0,0,0,0,0],"sum_hessian":[3.6995796E3,1.6100309E3,2.0895488E3,1.520952E3,8.907886E1,2.6500552E2,1.8245433E3,1.4259718E2,1.3783549E3,2.638666E1,6.2692196E1,3.558254E1,2.2942299E2,6.457636E2,1.1787797E3,1.2019639E2,2.240079E1,1.372339E3,6.0159116E0,2.2906961E1,3.4796972E0,5.952534E1,3.1668513E0,3.3842964E1,1.7395751E0,3.2411114E1,1.9701187E2,5.8831805E2,5.7445606E1,4.038844E0,1.1747408E3,1.17396034E2,2.8003516E0,1.9169025E1,3.231763E0,4.961877E0,1.0540344E0,1.306785E0,2.1600178E1,5.6973442E1,2.5519013E0,1.3066028E0,1.8602483E0,3.253752E1,1.305443E0,5.0997715E0,2.731134E1,7.1840416E1,1.25171455E2,4.9826468E2,9.0053345E1,2.45302E1,3.291541E1,2.9838789E0,1.0549653E0,1.1725012E3,2.2396095E0,1.0554366E0,1.744915E0,2.3578234E0,1.6811203E1,1.055544E0,1.4963573E0,3.148258E1,1.0549407E0,3.492339E0,1.6074326E0,2.525817E1,2.053172E0,6.1619396E0,6.5678474E1,6.093845E1,6.423301E1,3.3502878E2,1.6323592E2,7.637318E1,1.3680172E1,2.0800768E1,3.7294312E0,2.5533607E1,7.3818007E0,1.296624E0,1.1712046E3],"tree_param":{"num_deleted":"0","num_feature":"37","num_nodes":"83","size_leaf_vector":"1"}},{"base_weights":[-2.2154898E-4,-1.6471342E0,1.2658337E0,-1.7000866E0,-7.3515856E-1,-1.0064154E-1,1.4924358E0,-1.2706748E0,-8.717878E-2,1.1782445E0,-1.5469233E0,-1.606345E0,1.4779614E-1,1.0802339E0,1.6736056E0,-1.7151747E0,1.0803168E0,1.6125304E0,-6.975185E-2,-1.6791807E0,7.289385E-1,-2.6366046E-1,-8.67165E-2,9.2147994E-1,-2.9643968E-1,1.2158973E0,-1.3017696E-1,-9.755644E-1,1.684663E0,-8.688754E-2,-5.657935E-1,1.5428151E0,-6.8686225E-2,1.2211231E-2,8.407419E-2,-8.619717E-2,-4.8152956E-1,1.1867925E-2,4.3530643E-2,-6.1885513E-2,4.253809E-2,1.2566813E0,-8.334192E-2,-8.00542E-1,3.4250462E-1,1.3501178E0,2.5765494E-1,1.2289578E0,-1.1758912E0,-7.1488515E-2,2.713546E-2,1.6910233E0,-6.273652E-2,-5.9158158E-2,2.6667753E-2,7.6212324E-3,8.1529915E-2,2.66044E-2,-5.6174506E-2,6.750051E-2,-3.84107E-2,-4.618859E-2,5.9081268E-2,3.0101398E-2,-8.440191E-2,2.1434957E-2,7.233556E-2,-7.0434205E-2,2.9017571E-2,8.3946325E-2,-6.856805E-2,-8.493703E-2,3.7254635E-2,7.809248E-2,8.701899E-2],"categories":[],"categories_nodes":[],"categories_segments":[],"categories_sizes":[],"default_left":[0,1,0,0,0,0,0,0,0,0,0,0,0,0,0,0,0,0,0,1,0,0,0,0,0,0,0,0,0,0,0,0,0,0,0,0,0,0,0,0,0,0,0,0,0,0,0,0,0,0,0,0,0,0,0,0,0,0,0,0,0,0,0,0,0,0,0,0,0,0,0,0,0,0,0],"id":3,"left_children":[1,3,5,7,9,11,13,15,-1,17,19,21,23,25,27,29,31,33,-1,35,37,39,-1,41,43,45,47,49,51,-1,53,55,-1,-1,-1,-1,57,-1,-1,-1,-1,59,-1,61,63,65,67,69,71,-1,-1,73,-1,-1,-1,-1,-1,-1,-1,-1,-1,-1,-1,-1,-1,-1,-1,-1,-1,-1,-1,-1,-1,-1,-1],"loss_changes":[7.646536E3,7.572168E1,6.4216016E2,2.5901855E1,1.4041763E2,1.10909386E2,1.3100879E2,1.5040251E2,0E0,3.2587616E1,2.0211914E1,6.7577744E0,8.7871506E1,8.9789856E1,3.7781494E1,2.1289368E0,2.8469732E1,1.8245735E0,0E0,2.3822174E0,8.3204985E-2,6.299367E0,0E0,8.296198E1,5.2666817E1,6.2792847E1,8.0916016E1,4.7488623E0,2.5096436E1,0E0,3.2050014E0,2.1932182E0,0E0,0E0,0E0,0E0,2.9054825E0,0E0,0E0,0E0,0E0,1.6739624E1,0E0,2.3374496E1,3.91888E1,3.7684326E1,3.3914886E1,3.1323517E1,3.3519043E1,0E0,0E0,5.1030273E0,0E0,0E0,0E0,0E0,0E0,0E0,0E0,0E0,0E0,0E0,0E0,0E0,0E0,0E0,0E0,0E0,0E0,0E0,0E0,0E0,0E0,0E0,0E0],"parents":[2147483647,0,0,1,1,2,2,3,3,4,4,5,5,6,6,7,7,9,9,10,10,11,11,12,12,13,13,14,14,15,15,16,16,17,17,19,19,20,20,21,21,23,23,24,24,25,25,26,26,27,27,28,28,30,30,31,31,36,36,41,41,43,43,44,44,45,45,46,46,47,47,48,48,51,51],"right_children":[2,4,6,8,10,12,14,16,-1,18,20,22,24,26,28,30,32,34,-1,36,38,40,-1,42,44,46,48,50,52,-1,54,56,-1,-1,-1,-1,58,-1,-1,-1,-1,60,-1,62,64,66,68,70,72,-1,-1,74,-1,-1,-1,-1,-1,-1,-1,-1,-1,-1,-1,-1,-1,-1,-1,-1,-1,-1,-1,-1,-1,-1,-1],"split_conditions":[6.57E2,5.54E1,1.68E2,6.773E1,7.77E2,8.32E1,7.054E3,1.8E2,-8.717878E-2,2E-1,2.233E2,1E0,2.985E3,3.437E1,9.34E0,1.61E2,2E-1,2.22E0,-6.975185E-2,8.46E1,5.22E1,8.27E1,-8.67165E-2,3.182E1,1.489E2,1.642E1,2E-1,8.95E1,1E1,-8.688754E-2,1.82E1,1.44E0,-6.8686225E-2,1.2211231E-2,8.407419E-2,-8.619717E-2,8.81E1,1.1867925E-2,4.3530643E-2,-6.1885513E-2,4.253809E-2,1.37E1,-8.334192E-2,1.812E1,3.8E0,7.32E1,6.111E3,1.2E1,5.194E3,-7.1488515E-2,2.713546E-2,3.376E2,-6.273652E-2,-5.9158158E-2,2.6667753E-2,7.6212324E-3,8.1529915E-2,2.66044E-2,-5.6174506E-2,6.750051E-2,-3.84107E-2,-4.618859E-2,5.9081268E-2,3.0101398E-2,-8.440191E-2,2.1434957E-2,7.233556E-2,-7.0434205E-2,2.9017571E-2,8.3946325E-2,-6.856805E-2,-8.493703E-2,3.7254635E-2,7.809248E-2,8.701899E-2],"split_indices":[33,22,22,7,19,22,33,33,0,12,22,5,19,6,20,33,12,20,0,21,18,21,0,6,22,20,13,16,0,0,17,20,0,0,0,0,21,0,0,0,0,13,0,20,34,21,33,5,33,0,0,22,0,0,0,0,0,0,0,0,0,0,0,0,0,0,0,0,0,0,0,0,0,0,0],"split_type":[0,0,0,0,0,0,0,0,0,0,0,0,0,0,0,0,0,0,0,0,0,0,0,0,0,0,0,0,0,0,0,0,0,0,0,0,0,0,0,0,0,0,0,0,0,0,0,0,0,0,0,0,0,0,0,0,0,0,0,0,0,0,0,0,0,0,0,0,0,0,0,0,0,0,0],"sum_hessian":[3.6652583E3,1.5928904E3,2.072368E3,1.5046604E3,8.8229996E1,2.9485623E2,1.7775117E3,1.4115065E2,1.3635098E3,2.6147203E1,6.208279E1,4.098615E1,2.5387007E2,5.448404E2,1.2326713E3,1.189343E2,2.221635E1,2.2691051E1,3.4561515E0,5.892089E1,3.1618977E0,3.833125E0,3.7153023E1,9.2207184E1,1.6166289E2,4.8992487E2,5.491555E1,4.7611136E0,1.2279102E3,1.1614116E2,2.7931433E0,1.9005766E1,3.210585E0,1.3065181E0,2.1384535E1,5.637444E1,2.5464547E0,1.3059405E0,1.8559573E0,1.9863479E0,1.8467771E0,8.209049E1,1.0116689E1,9.022553E1,7.143736E1,4.2937378E2,6.0551075E1,2.3803043E1,3.1112505E1,3.709634E0,1.0514798E0,1.2256827E3,2.227459E0,1.7396057E0,1.0535376E0,1.291186E0,1.771458E1,1.0537684E0,1.4926863E0,7.87922E1,3.2982945E0,8.5447296E1,4.7782326E0,6.396546E1,7.471901E0,4.1256847E1,3.8811694E2,9.2776785E0,5.12734E1,2.0593761E1,3.2092822E0,2.4547035E1,6.5654697E0,3.478764E2,8.7780634E2],"tree_param":{"num_deleted":"0","num_feature":"37","num_nodes":"75","size_leaf_vector":"1"}},{"base_weights":[-3.4086005E-4,-1.5875793E0,1.2158332E0,-1.6387382E0,-7.077652E-1,-1.8434541E-1,1.4213554E0,-1.224391E0,-1.6807257E0,1.1336942E0,-1.4897096E0,1.3764495E0,-4.392595E-1,1.0159949E0,1.6091098E0,-1.6535293E0,1.0380683E0,-8.414377E-2,-1.0208284E0,1.5548521E0,-6.752803E-2,-1.6188703E0,7.069444E-1,1.5713336E0,-5.9516873E-2,9.451768E-1,-6.7108315E-1,1.139461E0,-1.4032991E-1,-9.3986434E-1,1.6197953E0,-8.377209E-2,-5.4750943E-1,1.486034E0,-6.6519104E-2,-7.125074E-2,3.180086E-2,1.1867265E-2,8.109834E-2,-8.3115555E-2,-4.6678674E-1,1.1533647E-2,4.220894E-2,1.6154985E0,1.21526085E-2,-5.990371E-1,1.2464288E0,-1.4540263E0,-2.2038695E-1,1.2912427E0,1.8475135E-1,1.1520166E0,-1.1348702E0,-6.927865E-2,2.6830448E-2,1.6259675E0,-6.0882676E-2,2.6534183E-2,-5.781859E-2,1.9303385E-2,8.0575965E-2,2.6452376E-2,-5.501282E-2,8.195293E-2,2.255038E-2,-7.2369926E-2,5.4831106E-2,6.900866E-2,-1.4920935E-2,4.291603E-3,-7.6274425E-2,1.3006943E-2,-3.3414815E-2,7.2873704E-2,3.8950246E-2,-5.9819706E-2,2.3466187E-2,8.0976926E-2,-6.793198E-2,-8.192593E-2,3.569807E-2,7.467404E-2,8.386691E-2],"categories":[],"categories_nodes":[],"categories_segments":[],"categories_sizes":[],"default_left":[0,1,0,0,0,0,0,0,0,0,0,0,0,0,0,0,0,0,1,0,0,1,0,0,0,0,0,0,0,0,0,0,1,0,0,0,0,0,0,0,0,0,0,0,0,0,0,0,0,0,0,0,0,0,0,0,0,0,0,0,0,0,0,0,0,0,0,0,0,0,0,0,0,0,0,0,0,0,0,0,0,0,0],"id":4,"left_children":[1,3,5,7,9,11,13,15,17,19,21,23,25,27,29,31,33,-1,35,37,-1,39,41,43,-1,45,47,49,51,53,55,-1,57,59,-1,-1,-1,-1,-1,-1,61,-1,-1,63,-1,65,67,69,71,73,75,77,79,-1,-1,81,-1,-1,-1,-1,-1,-1,-1,-1,-1,-1,-1,-1,-1,-1,-1,-1,-1,-1,-1,-1,-1,-1,-1,-1,-1,-1,-1],"loss_changes":[6.9935444E3,6.958301E1,5.905408E2,2.3769531E1,1.2858621E2,1.0541646E2,1.3450732E2,1.3791393E2,1.9042969E-1,3.0177193E1,1.88181E1,2.0491982E1,7.355527E1,8.138977E1,3.477466E1,1.9497375E0,2.6358217E1,0E0,5.5338492E0,1.6850929E0,0E0,2.1837006E0,7.6868296E-2,1.6623459E0,0E0,1.6100042E1,6.856075E1,7.427106E1,7.300198E1,4.5138183E0,2.3277588E1,0E0,3.0975065E0,2.1104317E0,0E0,0E0,0E0,0E0,0E0,0E0,2.8147616E0,0E0,0E0,1.8606567E-1,0E0,1.0308985E1,6.1848984E0,7.958908E0,2.7092154E1,3.6627563E1,2.8742199E1,3.1257092E1,3.0991348E1,0E0,0E0,5.756592E0,0E0,0E0,0E0,0E0,0E0,0E0,0E0,0E0,0E0,0E0,0E0,0E0,0E0,0E0,0E0,0E0,0E0,0E0,0E0,0E0,0E0,0E0,0E0,0E0,0E0,0E0,0E0],"parents":[2147483647,0,0,1,1,2,2,3,3,4,4,5,5,6,6,7,7,8,8,9,9,10,10,11,11,12,12,13,13,14,14,15,15,16,16,18,18,19,19,21,21,22,22,23,23,25,25,26,26,27,27,28,28,29,29,30,30,32,32,33,33,40,40,43,43,45,45,46,46,47,47,48,48,49,49,50,50,51,51,52,52,55,55],"right_children":[2,4,6,8,10,12,14,16,18,20,22,24,26,28,30,32,34,-1,36,38,-1,40,42,44,-1,46,48,50,52,54,56,-1,58,60,-1,-1,-1,-1,-1,-1,62,-1,-1,64,-1,66,68,70,72,74,76,78,80,-1,-1,82,-1,-1,-1,-1,-1,-1,-1,-1,-1,-1,-1,-1,-1,-1,-1,-1,-1,-1,-1,-1,-1,-1,-1,-1,-1,-1,-1],"split_conditions":[6.57E2,5.54E1,1.618E2,6.773E1,7.77E2,1.118E3,7.054E3,1.8E2,8.03E-1,2E-1,2.233E2,3.019E1,2E0,3.437E1,9.34E0,1.61E2,2E-1,-8.414377E-2,7.89E1,2.22E0,-6.752803E-2,8.46E1,6.42E0,5.9E0,-5.9516873E-2,1.019E3,1.163E2,1.642E1,2E-1,9.1E1,1E1,-8.377209E-2,1.2E1,7.98E1,-6.6519104E-2,-7.125074E-2,3.180086E-2,1.1867265E-2,8.109834E-2,-8.3115555E-2,5.27E2,1.1533647E-2,4.220894E-2,2.67E2,1.21526085E-2,6.6E0,3.862E1,2.35E1,4.487E3,4.8E0,6.111E3,1.2E1,5.194E3,-6.927865E-2,2.6830448E-2,3.376E2,-6.0882676E-2,2.6534183E-2,-5.781859E-2,1.9303385E-2,8.0575965E-2,2.6452376E-2,-5.501282E-2,8.195293E-2,2.255038E-2,-7.2369926E-2,5.4831106E-2,6.900866E-2,-1.4920935E-2,4.291603E-3,-7.6274425E-2,1.3006943E-2,-3.3414815E-2,7.2873704E-2,3.8950246E-2,-5.9819706E-2,2.3466187E-2,8.0976926E-2,-6.793198E-2,-8.192593E-2,3.569807E-2,7.467404E-2,8.386691E-2],"split_indices":[33,22,22,7,19,19,33,33,23,12,22,6,5,6,20,33,12,0,21,20,0,21,20,12,0,33,22,20,13,21,0,0,17,21,0,0,0,0,0,0,33,0,0,1,0,26,18,27,33,36,33,5,33,0,0,22,0,0,0,0,0,0,0,0,0,0,0,0,0,0,0,0,0,0,0,0,0,0,0,0,0,0,0],"split_type":[0,0,0,0,0,0,0,0,0,0,0,0,0,0,0,0,0,0,0,0,0,0,0,0,0,0,0,0,0,0,0,0,0,0,0,0,0,0,0,0,0,0,0,0,0,0,0,0,0,0,0,0,0,0,0,0,0,0,0,0,0,0,0,0,0,0,0,0,0,0,0,0,0,0,0,0,0,0,0,0,0,0,0],"sum_hessian":[3.620926E3,1.5706946E3,2.0502314E3,1.4835664E3,8.712811E1,2.6243332E2,1.7877981E3,1.3927843E2,1.3442881E3,2.5835745E1,6.1292366E1,3.62263E1,2.2620703E2,5.679687E2,1.2198295E3,1.1729862E2,2.1979805E1,1.3383779E3,5.9100966E0,2.2410576E1,3.4251685E0,5.813701E1,3.1553576E0,3.4030354E1,2.1959457E0,3.2004E1,1.9420303E2,5.1318787E2,5.478084E1,4.7292824E0,1.2151001E3,1.14515E2,2.783622E0,1.8797113E1,3.182691E0,4.863558E0,1.0465388E0,1.30616E0,2.1104416E1,5.559775E1,2.5392597E0,1.3054981E0,1.8498595E0,3.2725994E1,1.3043612E0,5.0629425E0,2.6941061E1,7.0136566E1,1.2406647E2,4.424878E2,7.070008E1,2.3754684E1,3.1026157E1,3.6799636E0,1.0493188E0,1.2128888E3,2.2113655E0,1.0509562E0,1.7326657E0,2.34225E0,1.6454863E1,1.0513484E0,1.4879112E0,3.1677557E1,1.0484344E0,3.4721754E0,1.5907669E0,2.4892593E1,2.0484667E0,3.1016395E0,6.703493E1,6.005621E1,6.4010254E1,3.3268094E2,1.0980686E2,1.1531046E1,5.9169033E1,2.0324831E1,3.429854E0,2.447309E1,6.553068E0,3.472897E2,8.6559906E2],"tree_param":{"num_deleted":"0","num_feature":"37","num_nodes":"83","size_leaf_vector":"1"}},{"base_weights":[-4.0286293E-4,-1.5348142E0,1.1707579E0,-1.5844188E0,-6.832213E-1,-9.421328E-2,1.3834798E0,-1.1831038E0,-1.6251131E0,1.0935633E0,-1.4385062E0,-8.155747E-1,3.572584E-1,9.939562E-1,1.5565971E0,-1.5988121E0,1.0005118E0,-8.136064E-2,-9.8434055E-1,1.5031285E0,-6.548221E-2,-1.5651665E0,6.858995E-1,1.8919818E-2,-1.4152237E0,9.6003944E-1,-4.3490258E-1,1.1352223E0,1.9421614E-3,-9.066774E-1,1.5670376E0,-8.1011355E-2,-5.301139E-1,1.4356744E0,-6.452152E-2,-6.905055E-2,3.0946156E-2,1.1533456E-2,7.844258E-2,-8.037994E-2,-4.5270452E-1,1.1047262E-2,4.107617E-2,9.311348E-1,-1.0750291E0,-1.564758E0,-5.4130626E-1,1.1255838E0,-7.585449E-1,-1.041166E0,7.712559E-1,1.2727123E0,2.6650652E-1,1.1762483E0,-1.0103947E0,2.6768431E-2,-6.73218E-2,1.5730909E0,-5.9155803E-2,2.640132E-2,-5.654489E-2,5.8423444E-3,7.608405E-2,2.5781814E-2,-5.3549744E-2,5.735935E-2,-5.9552718E-2,-7.138681E-2,8.242856E-3,-8.0565505E-2,1.1665139E-2,-7.593893E-2,3.256981E-2,6.059153E-2,-1.2236387E-2,-6.402193E-2,4.613227E-2,-5.9415765E-2,7.151327E-2,-7.022179E-2,5.2546144E-2,1.606662E-2,6.848421E-2,-7.021941E-2,2.9940719E-2,7.285723E-2,-6.939597E-2,-8.32958E-2,4.72542E-2,7.236276E-2,8.107443E-2],"categories":[],"categories_nodes":[],"categories_segments":[],"categories_sizes":[],"default_left":[0,1,0,0,0,0,0,0,0,0,0,0,0,0,0,0,0,0,1,0,0,1,0,0,0,0,0,0,0,1,0,0,0,0,0,0,0,0,0,0,0,0,0,0,0,0,0,0,0,0,0,0,0,0,0,0,0,0,0,0,0,0,0,0,0,0,0,0,0,0,0,0,0,0,0,0,0,0,0,0,0,0,0,0,0,0,0,0,0,0,0],"id":5,"left_children":[1,3,5,7,9,11,13,15,17,19,21,23,25,27,29,31,33,-1,35,37,-1,39,41,43,45,47,49,51,53,55,57,-1,59,61,-1,-1,-1,-1,-1,-1,63,-1,-1,65,67,69,71,73,75,77,79,81,83,85,87,-1,-1,89,-1,-1,-1,-1,-1,-1,-1,-1,-1,-1,-1,-1,-1,-1,-1,-1,-1,-1,-1,-1,-1,-1,-1,-1,-1,-1,-1,-1,-1,-1,-1,-1,-1],"loss_changes":[6.4151147E3,6.419385E1,5.449109E2,2.1912598E1,1.18075745E2,9.551245E1,1.1532617E2,1.26908264E2,1.772461E-1,2.8015978E1,1.7581596E1,5.649945E1,8.6619156E1,7.511737E1,3.2233643E1,1.8039246E0,2.447534E1,0E0,5.2112746E0,1.567955E0,0E0,2.0196533E0,8.001208E-2,4.9074436E1,7.736145E0,3.010904E1,5.8350483E1,5.5704346E1,8.181296E1,4.32934E0,2.1729248E1,0E0,2.99504E0,2.0389519E0,0E0,0E0,0E0,0E0,0E0,0E0,2.6659741E0,0E0,0E0,1.3656435E1,1.0017736E1,5.0260925E0,1.3959594E1,1.1429291E1,9.632779E0,2.0900742E1,1.7843235E1,3.690924E1,3.7143353E1,2.4970398E1,4.895181E1,0E0,0E0,4.908203E0,0E0,0E0,0E0,0E0,0E0,0E0,0E0,0E0,0E0,0E0,0E0,0E0,0E0,0E0,0E0,0E0,0E0,0E0,0E0,0E0,0E0,0E0,0E0,0E0,0E0,0E0,0E0,0E0,0E0,0E0,0E0,0E0,0E0],"parents":[2147483647,0,0,1,1,2,2,3,3,4,4,5,5,6,6,7,7,8,8,9,9,10,10,11,11,12,12,13,13,14,14,15,15,16,16,18,18,19,19,21,21,22,22,23,23,24,24,25,25,26,26,27,27,28,28,29,29,30,30,32,32,33,33,40,40,43,43,44,44,45,45,46,46,47,47,48,48,49,49,50,50,51,51,52,52,53,53,54,54,57,57],"right_children":[2,4,6,8,10,12,14,16,18,20,22,24,26,28,30,32,34,-1,36,38,-1,40,42,44,46,48,50,52,54,56,58,-1,60,62,-1,-1,-1,-1,-1,-1,64,-1,-1,66,68,70,72,74,76,78,80,82,84,86,88,-1,-1,90,-1,-1,-1,-1,-1,-1,-1,-1,-1,-1,-1,-1,-1,-1,-1,-1,-1,-1,-1,-1,-1,-1,-1,-1,-1,-1,-1,-1,-1,-1,-1,-1,-1],"split_conditions":[6.57E2,5.54E1,1.68E2,6.773E1,7.77E2,1.243E2,7.054E3,1.8E2,8.03E-1,2E-1,2.233E2,2.862E1,7.938E3,4.56E2,9.34E0,1.61E2,2E-1,-8.136064E-2,7.89E1,2.22E0,-6.548221E-2,8.46E1,5.22E1,2.922E3,7E0,1.37E1,6.501E3,1.604E1,2E-1,7.3E1,1E1,-8.1011355E-2,6.55E1,1.44E0,-6.452152E-2,-6.905055E-2,3.0946156E-2,1.1533456E-2,7.844258E-2,-8.037994E-2,5.27E2,1.1047262E-2,4.107617E-2,6.32E-1,1.62E0,2.84E1,1.745E3,3.258E1,2.17E1,2.02E1,5.9E-1,7.32E1,6.111E3,4.183E3,5.194E3,2.6768431E-2,-6.73218E-2,3.376E2,-5.9155803E-2,2.640132E-2,-5.654489E-2,5.8423444E-3,7.608405E-2,2.5781814E-2,-5.3549744E-2,5.735935E-2,-5.9552718E-2,-7.138681E-2,8.242856E-3,-8.0565505E-2,1.1665139E-2,-7.593893E-2,3.256981E-2,6.059153E-2,-1.2236387E-2,-6.402193E-2,4.613227E-2,-5.9415765E-2,7.151327E-2,-7.022179E-2,5.2546144E-2,1.606662E-2,6.848421E-2,-7.021941E-2,2.9940719E-2,7.285723E-2,-6.939597E-2,-8.32958E-2,4.72542E-2,7.236276E-2,8.107443E-2],"split_indices":[33,22,22,7,19,22,33,33,23,12,22,6,19,8,20,33,12,0,21,20,0,21,18,19,9,13,33,20,13,21,0,0,21,20,0,0,0,0,0,0,33,0,0,23,28,15,19,6,17,11,28,21,33,19,33,0,0,22,0,0,0,0,0,0,0,0,0,0,0,0,0,0,0,0,0,0,0,0,0,0,0,0,0,0,0,0,0,0,0,0,0],"split_type":[0,0,0,0,0,0,0,0,0,0,0,0,0,0,0,0,0,0,0,0,0,0,0,0,0,0,0,0,0,0,0,0,0,0,0,0,0,0,0,0,0,0,0,0,0,0,0,0,0,0,0,0,0,0,0,0,0,0,0,0,0,0,0,0,0,0,0,0,0,0,0,0,0,0,0,0,0,0,0,0,0,0,0,0,0,0,0,0,0,0,0],"sum_hessian":[3.567818E3,1.5442667E3,2.0235514E3,1.4584526E3,8.5814095E1,2.9138135E2,1.73217E3,1.3704352E2,1.321409E3,2.5463682E1,6.035041E1,1.1185421E2,1.7952713E2,5.3504047E2,1.1971295E3,1.1535121E2,2.1692308E1,1.3155588E3,5.8502483E0,2.2075937E1,3.3877468E0,5.7203117E1,3.1472924E0,4.7173798E1,6.468041E1,1.0182969E2,7.769744E1,4.6822003E2,6.682043E1,4.690276E0,1.1924393E3,1.1257924E2,2.771975E0,1.854334E1,3.1489677E0,4.8010297E0,1.0492187E0,1.3057187E0,2.0770218E1,5.4672676E1,2.5304403E0,1.3044382E0,1.842854E0,2.5804743E1,2.1369057E1,5.4555096E1,1.0125315E1,9.319741E1,8.632281E0,5.179833E1,2.5899115E1,4.0383997E2,6.438009E1,3.0860489E1,3.5959938E1,1.045262E0,3.6450143E0,1.1902474E3,2.191802E0,1.0477366E0,1.7242385E0,1.279655E0,1.7263687E1,1.0507804E0,1.4796599E0,2.383738E1,1.9673631E0,1.651856E1,4.850495E0,5.3279537E1,1.2755599E0,5.4145E0,4.7108145E0,8.778774E1,5.4096675E0,6.769265E0,1.8630161E0,4.937756E1,2.4207659E0,2.4918392E0,2.3407276E1,3.7753937E1,3.6608603E2,1.0144718E1,5.4235367E1,2.8202702E1,2.657787E0,2.7042688E1,8.917251E0,3.392054E2,8.5104205E2],"tree_param":{"num_deleted":"0","num_feature":"37","num_nodes":"91","size_leaf_vector":"1"}},{"base_weights":[-5.286646E-4,-1.4877654E0,1.1296185E0,-1.5360148E0,-6.6109824E-1,-9.085319E-2,1.3364954E0,-1.1461892E0,-1.5755755E0,1.0571896E0,-1.3924071E0,-1.4588946E0,1.2981692E-1,9.653304E-1,1.5118605E0,-1.5499483E0,9.6544844E-1,-7.888193E-2,-9.505767E-1,1.4564618E0,-6.3592464E-2,-1.517074E0,6.65713E-1,-1.5198997E0,2.2935757E-2,1.455157E0,-8.061144E-2,1.0993707E0,-1.07903825E-2,-7.991555E-1,1.5209024E0,-7.855016E-2,-5.135429E-1,1.388894E0,-6.2672965E-2,-6.7193024E-2,3.0754054E-2,1.12094665E-2,7.605849E-2,-7.793685E-2,-4.3937403E-1,1.0737539E-2,3.9870072E-2,-6.4507055E-1,-7.8704275E-2,1.5209707E0,1.5773801E-3,1.0989515E0,-2.6054797E-1,7.3428285E-1,1.3916403E0,1.1339105E0,-9.8308665E-1,-6.326527E-2,2.6701028E-2,1.5269431E0,-5.7542283E-2,-5.5331707E-2,2.6268689E-2,4.189382E-3,7.3806316E-2,2.5628915E-2,-5.251516E-2,-5.9292186E-2,2.3304356E-2,7.721316E-2,2.0587323E-2,-5.8033008E-2,6.2027194E-2,-3.1081874E-2,1.4978694E-2,4.6283234E-2,-2.1408409E-2,7.72097E-2,4.286018E-2,7.040129E-2,-6.719717E-2,-8.053763E-2,3.926736E-2,7.0229284E-2,7.8621574E-2],"categories":[],"categories_nodes":[],"categories_segments":[],"categories_sizes":[],"default_left":[0,1,0,0,0,0,0,0,0,0,0,1,0,0,0,0,0,0,1,0,0,1,0,0,0,0,0,1,0,0,0,0,0,0,0,0,0,0,0,0,0,0,0,0,0,0,0,1,0,0,0,0,0,0,0,0,0,0,0,0,0,0,0,0,0,0,0,0,0,0,0,0,0,0,0,0,0,0,0,0,0],"id":6,"left_children":[1,3,5,7,9,11,13,15,17,19,21,23,25,27,29,31,33,-1,35,37,-1,39,41,43,-1,45,47,49,51,53,55,-1,57,59,-1,-1,-1,-1,-1,-1,61,-1,-1,63,-1,65,-1,67,69,71,73,75,77,-1,-1,79,-1,-1,-1,-1,-1,-1,-1,-1,-1,-1,-1,-1,-1,-1,-1,-1,-1,-1,-1,-1,-1,-1,-1,-1,-1],"loss_changes":[5.8987754E3,5.9426025E1,5.0362134E2,2.0263428E1,1.08689354E2,8.772584E1,1.0953027E2,1.1703517E2,1.71875E-1,2.6068539E1,1.647715E1,5.4183884E0,7.000912E1,7.1962036E1,2.5377197E1,1.6840515E0,2.2757895E1,0E0,5.0022902E0,1.4687233E0,0E0,1.8809052E0,7.449651E-2,8.4968567E-1,0E0,3.174141E0,4.638997E1,5.0572144E1,7.61149E1,3.8836112E0,2.0351318E1,0E0,2.8972054E0,2.0688095E0,0E0,0E0,0E0,0E0,0E0,0E0,2.5851853E0,0E0,0E0,2.9497523E0,0E0,2.1286774E-1,0E0,1.0699493E1,3.846808E1,4.8694656E1,2.0479736E1,2.3228981E1,4.2304153E1,0E0,0E0,4.1921387E0,0E0,0E0,0E0,0E0,0E0,0E0,0E0,0E0,0E0,0E0,0E0,0E0,0E0,0E0,0E0,0E0,0E0,0E0,0E0,0E0,0E0,0E0,0E0,0E0,0E0],"parents":[2147483647,0,0,1,1,2,2,3,3,4,4,5,5,6,6,7,7,8,8,9,9,10,10,11,11,12,12,13,13,14,14,15,15,16,16,18,18,19,19,21,21,22,22,23,23,25,25,26,26,27,27,28,28,29,29,30,30,32,32,33,33,40,40,43,43,45,45,47,47,48,48,49,49,50,50,51,51,52,52,55,55],"right_children":[2,4,6,8,10,12,14,16,18,20,22,24,26,28,30,32,34,-1,36,38,-1,40,42,44,-1,46,48,50,52,54,56,-1,58,60,-1,-1,-1,-1,-1,-1,62,-1,-1,64,-1,66,-1,68,70,72,74,76,78,-1,-1,80,-1,-1,-1,-1,-1,-1,-1,-1,-1,-1,-1,-1,-1,-1,-1,-1,-1,-1,-1,-1,-1,-1,-1,-1,-1],"split_conditions":[6.57E2,5.54E1,1.68E2,6.773E1,7.77E2,8.32E1,7.181E3,1.8E2,8.03E-1,2E-1,2.233E2,2.58E1,1.118E3,4.56E2,9.34E0,1.61E2,2E-1,-7.888193E-2,2.18E1,2.22E0,-6.3592464E-2,8.46E1,5.22E1,1E0,2.2935757E-2,5.9E0,2E0,2.392E2,2E-1,8.85E1,1E1,-7.855016E-2,8.64E1,1.94E2,-6.2672965E-2,-6.7193024E-2,3.0754054E-2,1.12094665E-2,7.605849E-2,-7.793685E-2,8.81E1,1.0737539E-2,3.9870072E-2,5.9E0,-7.8704275E-2,2.67E2,1.5773801E-3,1.34E1,1.489E2,5.8E0,4.78E1,4.183E3,5.194E3,-6.326527E-2,2.6701028E-2,3.376E2,-5.7542283E-2,-5.5331707E-2,2.6268689E-2,4.189382E-3,7.3806316E-2,2.5628915E-2,-5.251516E-2,-5.9292186E-2,2.3304356E-2,7.721316E-2,2.0587323E-2,-5.8033008E-2,6.2027194E-2,-3.1081874E-2,1.4978694E-2,4.6283234E-2,-2.1408409E-2,7.72097E-2,4.286018E-2,7.040129E-2,-6.719717E-2,-8.053763E-2,3.926736E-2,7.0229284E-2,7.8621574E-2],"split_indices":[33,22,22,7,19,22,33,33,23,12,22,17,19,8,20,33,12,0,17,20,0,21,18,5,0,12,5,22,13,16,0,0,26,1,0,0,0,0,0,0,21,0,0,26,0,1,0,17,22,11,31,19,33,0,0,22,0,0,0,0,0,0,0,0,0,0,0,0,0,0,0,0,0,0,0,0,0,0,0,0,0],"split_type":[0,0,0,0,0,0,0,0,0,0,0,0,0,0,0,0,0,0,0,0,0,0,0,0,0,0,0,0,0,0,0,0,0,0,0,0,0,0,0,0,0,0,0,0,0,0,0,0,0,0,0,0,0,0,0,0,0,0,0,0,0,0,0,0,0,0,0,0,0,0,0,0,0,0,0,0,0,0,0,0,0],"sum_hessian":[3.5075122E3,1.5143545E3,1.9931576E3,1.4300311E3,8.432341E1,2.889654E2,1.7041921E3,1.3451456E2,1.2955165E3,2.5041092E1,5.9282322E1,3.9357555E1,2.4960783E2,5.4891113E2,1.155281E3,1.1314624E2,2.1368319E1,1.289735E3,5.7815213E0,2.16963E1,3.344792E0,5.614436E1,3.1379616E0,3.8345078E1,1.012478E0,3.3390343E1,2.1621748E2,4.8252487E2,6.638629E1,4.161897E0,1.1511191E3,1.1038786E2,2.7583776E0,1.8258097E1,3.1102219E0,4.7340264E0,1.0474949E0,1.3052021E0,2.0391098E1,5.3624916E1,2.5194442E0,1.3038212E0,1.8341404E0,2.9891977E0,3.535588E1,3.1849545E1,1.540799E0,2.7941465E1,1.8827603E2,2.160984E2,2.6642648E2,3.041361E1,3.5972683E1,3.121398E0,1.0404993E0,1.14895E3,2.169205E0,1.7144566E0,1.0439209E0,1.2667301E0,1.6991367E1,1.0477781E0,1.4716661E0,1.9654479E0,1.0237498E0,3.081036E1,1.039186E0,1.2232329E0,2.6718233E1,1.14410225E2,7.38658E1,1.8572499E2,3.0373405E1,2.0579372E2,6.0632755E1,2.7772955E1,2.6406558E0,2.6615332E1,9.35735E0,3.200201E2,8.289298E2],"tree_param":{"num_deleted":"0","num_feature":"37","num_nodes":"81","size_leaf_vector":"1"}},{"base_weights":[-5.772887E-4,-1.4455765E0,1.0914067E0,-1.4926403E0,-6.4103633E-1,-1.4160129E-2,1.3067235E0,-1.1129342E0,-1.5312082E0,1.0240344E0,-1.3506482E0,-7.6560205E-1,3.7780038E-1,9.814602E-1,1.4839989E0,-1.5060738E0,9.3317413E-1,-7.666236E-2,-9.1901314E-1,1.414123E0,-6.1840195E-2,-1.4737512E0,6.463516E-1,1.9555384E-2,-1.3333578E0,1.195556E0,3.1142727E-2,1.1096829E0,-1.1988055E-1,1.4903318E0,-5.603028E-2,-7.634422E-2,-4.977388E-1,1.3459852E0,-6.0956012E-2,3.0562554E-2,-6.547285E-2,1.0894961E-2,7.390689E-2,-7.574326E-2,-4.2661873E-1,1.0286274E-2,3.8833994E-2,8.683781E-1,-9.9992096E-1,-2.3276533E-1,-1.4447153E0,1.3630079E0,-9.1323686E-1,-2.6857454E-1,8.194766E-1,8.294924E-1,1.4078337E0,1.0023878E0,-8.951719E-1,-6.3906497E-1,1.4978255E0,-5.388255E-2,2.5607182E-2,1.4664327E-2,7.368186E-2,2.5477562E-2,-5.152234E-2,-5.878451E-2,5.3984936E-2,-7.617247E-2,-6.846471E-3,-6.707437E-2,5.813464E-2,-7.42872E-2,1.1185604E-2,7.179376E-2,-5.5995267E-2,-6.948753E-2,2.4995519E-2,2.0399699E-2,-4.909449E-2,5.022133E-2,-4.672073E-2,5.103096E-2,-8.418019E-3,7.831651E-2,5.6372155E-2,7.40992E-2,-3.4487106E-2,-7.3983E-2,5.036607E-2,2.6613405E-2,-5.777579E-2,-2.8242575E-4,7.497939E-2],"categories":[],"categories_nodes":[],"categories_segments":[],"categories_sizes":[],"default_left":[0,1,0,0,0,0,0,0,0,0,0,0,0,0,0,0,0,0,0,0,0,1,0,0,0,0,0,1,0,0,0,0,0,0,0,0,0,0,0,0,0,0,0,0,0,0,0,0,0,0,0,0,0,0,1,0,0,0,0,0,0,0,0,0,0,0,0,0,0,0,0,0,0,0,0,0,0,0,0,0,0,0,0,0,0,0,0,0,0,0,0],"id":7,"left_children":[1,3,5,7,9,11,13,15,17,19,21,23,25,27,29,31,33,-1,35,37,-1,39,41,43,45,47,49,51,53,55,-1,-1,57,59,-1,-1,-1,-1,-1,-1,61,-1,-1,63,65,67,69,71,73,75,77,79,81,83,85,87,89,-1,-1,-1,-1,-1,-1,-1,-1,-1,-1,-1,-1,-1,-1,-1,-1,-1,-1,-1,-1,-1,-1,-1,-1,-1,-1,-1,-1,-1,-1,-1,-1,-1,-1],"loss_changes":[5.435133E3,5.5181396E1,4.6704224E2,1.8796875E1,1.0026546E2,9.477555E1,9.322925E1,1.08184784E2,1.7382812E-1,2.4305927E1,1.5484329E1,4.919555E1,5.9918243E1,8.2352356E1,1.9168701E1,1.5845795E0,2.1198345E1,0E0,4.8072224E0,1.3840065E0,0E0,1.7639542E0,7.723856E-2,4.1776733E1,7.510803E0,2.3469543E1,3.5557495E1,4.240631E1,5.45104E1,1.7851807E1,0E0,0E0,2.7439694E0,2.1135826E0,0E0,0E0,0E0,0E0,0E0,0E0,2.5075843E0,0E0,0E0,1.2643171E1,9.705063E0,1.2506054E1,4.2993546E0,1.2229889E1,4.2157645E0,5.3059895E1,1.4382488E1,5.191971E1,9.400635E0,2.1835953E1,4.2601612E1,3.2851017E0,2.8041992E0,0E0,0E0,0E0,0E0,0E0,0E0,0E0,0E0,0E0,0E0,0E0,0E0,0E0,0E0,0E0,0E0,0E0,0E0,0E0,0E0,0E0,0E0,0E0,0E0,0E0,0E0,0E0,0E0,0E0,0E0,0E0,0E0,0E0,0E0],"parents":[2147483647,0,0,1,1,2,2,3,3,4,4,5,5,6,6,7,7,8,8,9,9,10,10,11,11,12,12,13,13,14,14,15,15,16,16,18,18,19,19,21,21,22,22,23,23,24,24,25,25,26,26,27,27,28,28,29,29,32,32,33,33,40,40,43,43,44,44,45,45,46,46,47,47,48,48,49,49,50,50,51,51,52,52,53,53,54,54,55,55,56,56],"right_children":[2,4,6,8,10,12,14,16,18,20,22,24,26,28,30,32,34,-1,36,38,-1,40,42,44,46,48,50,52,54,56,-1,-1,58,60,-1,-1,-1,-1,-1,-1,62,-1,-1,64,66,68,70,72,74,76,78,80,82,84,86,88,90,-1,-1,-1,-1,-1,-1,-1,-1,-1,-1,-1,-1,-1,-1,-1,-1,-1,-1,-1,-1,-1,-1,-1,-1,-1,-1,-1,-1,-1,-1,-1,-1,-1,-1],"split_conditions":[6.57E2,5.54E1,1.763E2,6.773E1,7.77E2,1.243E2,7.562E3,1.8E2,8.03E-1,2E-1,2.233E2,2.862E1,3.378E3,4.56E2,1E1,1.61E2,2E-1,-7.666236E-2,6.791E1,2.22E0,-6.1840195E-2,8.46E1,6.42E0,2.922E3,2.84E1,3.182E1,6.501E3,2.897E2,2E-1,9.34E0,-5.603028E-2,-7.634422E-2,8.64E1,7.98E1,-6.0956012E-2,3.0562554E-2,-6.547285E-2,1.0894961E-2,7.390689E-2,-7.574326E-2,3.35E1,1.0286274E-2,3.8833994E-2,2.18E1,5.7E1,1.745E3,2.84E1,5.3E0,7.36E-1,8.552E3,7.6E0,7.1E0,3.29E1,1.2E1,1.28E3,4.52E-1,6.35E1,-5.388255E-2,2.5607182E-2,1.4664327E-2,7.368186E-2,2.5477562E-2,-5.152234E-2,-5.878451E-2,5.3984936E-2,-7.617247E-2,-6.846471E-3,-6.707437E-2,5.813464E-2,-7.42872E-2,1.1185604E-2,7.179376E-2,-5.5995267E-2,-6.948753E-2,2.4995519E-2,2.0399699E-2,-4.909449E-2,5.022133E-2,-4.672073E-2,5.103096E-2,-8.418019E-3,7.831651E-2,5.6372155E-2,7.40992E-2,-3.4487106E-2,-7.3983E-2,5.036607E-2,2.6613405E-2,-5.777579E-2,-2.8242575E-4,7.497939E-2],"split_indices":[33,22,22,7,19,22,33,33,23,12,22,6,19,8,0,33,12,0,7,20,0,21,20,19,27,6,33,22,13,20,0,0,26,21,0,0,0,0,0,0,18,0,0,15,8,19,15,11,23,19,12,11,13,5,22,23,21,0,0,0,0,0,0,0,0,0,0,0,0,0,0,0,0,0,0,0,0,0,0,0,0,0,0,0,0,0,0,0,0,0,0],"split_type":[0,0,0,0,0,0,0,0,0,0,0,0,0,0,0,0,0,0,0,0,0,0,0,0,0,0,0,0,0,0,0,0,0,0,0,0,0,0,0,0,0,0,0,0,0,0,0,0,0,0,0,0,0,0,0,0,0,0,0,0,0,0,0,0,0,0,0,0,0,0,0,0,0,0,0,0,0,0,0,0,0,0,0,0,0,0,0,0,0,0,0],"sum_hessian":[3.4425007E3,1.481603E3,1.9608977E3,1.3989146E3,8.2688385E1,3.197976E2,1.6411001E3,1.3174307E2,1.2671715E3,2.4576859E1,5.8111526E1,1.09300446E2,2.1049716E2,5.812198E2,1.0598802E3,1.1073112E2,2.1011961E1,1.2614653E3,5.7061687E0,2.1279734E1,3.2971263E0,5.4984108E1,3.1274195E0,4.627359E1,6.302685E1,6.1938107E1,1.4855907E2,5.2060156E2,6.061822E1,1.0577363E3,2.143975E0,1.0798813E2,2.7429922E0,1.7944773E1,3.067188E0,1.0449951E0,4.6611733E0,1.3046172E0,1.9975117E1,5.2476997E1,2.5071094E0,1.3024597E0,1.8249596E0,2.5331024E1,2.0942568E1,6.0750337E0,5.6951817E1,5.7709267E1,4.228837E0,1.0811431E2,4.0444748E1,2.7033408E2,2.5026749E2,2.4647282E1,3.5970943E1,3.4137852E0,1.0543225E3,1.6997988E0,1.0431933E0,2.2973046E0,1.5647469E1,1.044248E0,1.4628614E0,1.9458275E0,2.3385197E1,1.2558636E1,8.383931E0,3.4068737E0,2.6681602E0,5.5691788E1,1.2600305E0,5.647361E1,1.2356585E0,3.1748374E0,1.0539995E0,5.570603E1,5.240828E1,3.6973194E1,3.471554E0,2.268591E2,4.3474983E1,1.569577E2,9.330978E1,1.930103E1,5.3462515E0,2.7687103E1,8.283838E0,1.0352243E0,2.378561E0,1.2317729E0,1.0530908E3],"tree_param":{"num_deleted":"0","num_feature":"37","num_nodes":"91","size_leaf_vector":"1"}},{"base_weights":[-6.812908E-4,-1.4075536E0,1.056369E0,-1.4535768E0,-6.227465E-1,-1.4280173E-2,1.2669698E0,-1.0827491E0,-1.4912786E0,9.936523E-1,-1.3126179E0,-7.396091E-1,3.6149085E-1,9.461778E-1,1.4434036E0,-1.4664947E0,9.0411204E-1,-7.4665226E-2,-8.894049E-1,1.375512E0,-6.0209494E-2,-1.4345288E0,6.277398E-1,1.6836304E-2,-1.2900629E0,1.1541747E0,2.9534388E-2,1.0694093E0,-1.1552273E-1,1.4496459E0,-5.4609466E-2,-7.435751E-2,-4.8278952E-1,1.307425E0,-5.9355713E-2,-6.37353E-2,2.976854E-2,1.058963E-2,7.195559E-2,-7.376413E-2,-4.144028E-1,9.998682E-3,3.7727263E-2,-1.3603505E0,6.1006534E-1,-1.4378573E0,-4.5519537E-1,1.3175094E0,-8.809203E-1,-1.3712807E0,1.9379853E-1,7.9598886E-1,1.3628116E0,9.707756E-1,-8.648229E-1,-6.1891943E-1,1.4570284E0,2.5471264E-2,-5.280571E-2,1.4177795E-2,7.169407E-2,-5.056826E-2,2.5327323E-2,-7.605853E-2,-4.092339E-3,-6.0680967E-2,4.164734E-2,-7.411685E-2,1.0876863E-2,-6.959309E-2,3.2585766E-2,7.0750564E-2,-2.9441087E-2,-6.745028E-2,2.4721995E-2,-8.396218E-2,8.664391E-3,-5.1062065E-3,4.9501147E-2,4.9073223E-2,-7.995944E-3,7.5729415E-2,5.360023E-2,7.212226E-2,-3.3077326E-2,-7.608514E-2,3.720092E-2,2.5945133E-2,-5.6284394E-2,-2.7462366E-4,7.293914E-2],"categories":[],"categories_nodes":[],"categories_segments":[],"categories_sizes":[],"default_left":[0,1,0,0,0,0,0,0,0,0,0,0,0,0,0,0,0,0,1,0,0,1,0,1,0,0,0,1,0,0,0,0,0,0,0,0,0,0,0,0,1,0,0,0,0,0,0,0,0,0,0,0,0,0,0,0,0,0,0,0,0,0,0,0,0,0,0,0,0,0,0,0,0,0,0,0,0,0,0,0,0,0,0,0,0,0,0,0,0,0,0],"id":8,"left_children":[1,3,5,7,9,11,13,15,17,19,21,23,25,27,29,31,33,-1,35,37,-1,39,41,43,45,47,49,51,53,55,-1,-1,57,59,-1,-1,-1,-1,-1,-1,61,-1,-1,63,65,67,69,71,73,75,77,79,81,83,85,87,89,-1,-1,-1,-1,-1,-1,-1,-1,-1,-1,-1,-1,-1,-1,-1,-1,-1,-1,-1,-1,-1,-1,-1,-1,-1,-1,-1,-1,-1,-1,-1,-1,-1,-1],"loss_changes":[5.0179023E3,5.1380127E1,4.3443506E2,1.7491943E1,9.2672714E1,8.685148E1,8.97561E1,1.0027081E2,1.8115234E-1,2.2704214E1,1.4586891E1,4.5299816E1,5.5206863E1,7.524585E1,1.7993408E1,1.4997711E0,1.9791615E1,0E0,4.5491185E0,1.311142E0,0E0,1.6644821E0,7.236898E-2,3.905463E1,7.113121E0,2.1749207E1,3.4549763E1,4.0194397E1,5.0178894E1,1.6702393E1,0E0,0E0,2.6572413E0,2.0023212E0,0E0,0E0,0E0,0E0,0E0,0E0,2.4329555E0,0E0,0E0,2.8354034E0,1.4583421E1,4.226509E0,1.2240872E1,1.1564957E1,4.0154047E0,7.7883034E0,3.1729004E1,4.780641E1,9.269775E0,2.0367655E1,3.960155E1,3.1104755E0,2.6540527E0,0E0,0E0,0E0,0E0,0E0,0E0,0E0,0E0,0E0,0E0,0E0,0E0,0E0,0E0,0E0,0E0,0E0,0E0,0E0,0E0,0E0,0E0,0E0,0E0,0E0,0E0,0E0,0E0,0E0,0E0,0E0,0E0,0E0,0E0],"parents":[2147483647,0,0,1,1,2,2,3,3,4,4,5,5,6,6,7,7,8,8,9,9,10,10,11,11,12,12,13,13,14,14,15,15,16,16,18,18,19,19,21,21,22,22,23,23,24,24,25,25,26,26,27,27,28,28,29,29,32,32,33,33,40,40,43,43,44,44,45,45,46,46,47,47,48,48,49,49,50,50,51,51,52,52,53,53,54,54,55,55,56,56],"right_children":[2,4,6,8,10,12,14,16,18,20,22,24,26,28,30,32,34,-1,36,38,-1,40,42,44,46,48,50,52,54,56,-1,-1,58,60,-1,-1,-1,-1,-1,-1,62,-1,-1,64,66,68,70,72,74,76,78,80,82,84,86,88,90,-1,-1,-1,-1,-1,-1,-1,-1,-1,-1,-1,-1,-1,-1,-1,-1,-1,-1,-1,-1,-1,-1,-1,-1,-1,-1,-1,-1,-1,-1,-1,-1,-1,-1],"split_conditions":[6.57E2,5.54E1,1.763E2,6.773E1,7.77E2,1.243E2,7.562E3,1.8E2,8.03E-1,2E-1,2.233E2,2.862E1,3.378E3,4.56E2,1E1,1.61E2,2E-1,-7.4665226E-2,7.89E1,2.22E0,-6.0209494E-2,8.46E1,6.42E0,7.47E1,7E0,3.182E1,5.9E-1,2.897E2,2E-1,9.34E0,-5.4609466E-2,-7.435751E-2,6.55E1,7.98E1,-5.9355713E-2,-6.37353E-2,2.976854E-2,1.058963E-2,7.195559E-2,-7.376413E-2,1.85E1,9.998682E-3,3.7727263E-2,2.82E1,6.826E1,2.84E1,1.745E3,1.37E1,3.126E3,1.861E1,6.501E3,7.1E0,9.4E0,1.2E1,5.194E3,4.52E-1,6.35E1,2.5471264E-2,-5.280571E-2,1.4177795E-2,7.169407E-2,-5.056826E-2,2.5327323E-2,-7.605853E-2,-4.092339E-3,-6.0680967E-2,4.164734E-2,-7.411685E-2,1.0876863E-2,-6.959309E-2,3.2585766E-2,7.0750564E-2,-2.9441087E-2,-6.745028E-2,2.4721995E-2,-8.396218E-2,8.664391E-3,-5.1062065E-3,4.9501147E-2,4.9073223E-2,-7.995944E-3,7.5729415E-2,5.360023E-2,7.212226E-2,-3.3077326E-2,-7.608514E-2,3.720092E-2,2.5945133E-2,-5.6284394E-2,-2.7462366E-4,7.293914E-2],"split_indices":[33,22,22,7,19,22,33,33,23,12,22,6,19,8,0,33,12,0,21,20,0,21,20,21,9,6,28,22,13,20,0,0,21,21,0,0,0,0,0,0,17,0,0,15,7,15,19,13,19,20,33,11,11,5,33,23,21,0,0,0,0,0,0,0,0,0,0,0,0,0,0,0,0,0,0,0,0,0,0,0,0,0,0,0,0,0,0,0,0,0,0],"split_type":[0,0,0,0,0,0,0,0,0,0,0,0,0,0,0,0,0,0,0,0,0,0,0,0,0,0,0,0,0,0,0,0,0,0,0,0,0,0,0,0,0,0,0,0,0,0,0,0,0,0,0,0,0,0,0,0,0,0,0,0,0,0,0,0,0,0,0,0,0,0,0,0,0,0,0,0,0,0,0,0,0,0,0,0,0,0,0,0,0,0,0],"sum_hessian":[3.3722085E3,1.4465728E3,1.9256357E3,1.3656359E3,8.09369E1,3.1667273E2,1.608963E3,1.2877252E2,1.2368634E3,2.4078823E1,5.6858074E1,1.07740074E2,2.0893263E2,5.731762E2,1.0357867E3,1.0814678E2,2.062574E1,1.2312382E3,5.625225E0,2.083333E1,3.2454917E0,5.374219E1,3.1158848E0,4.5787426E1,6.195265E1,6.093888E1,1.4799376E2,5.1356006E2,5.9616165E1,1.0336703E3,2.1164792E0,1.0542139E2,2.7253907E0,1.7605211E1,3.0205283E0,4.5785646E0,1.0466604E0,1.3039706E0,1.952936E1,5.124865E1,2.4935427E0,1.3017075E0,1.8141773E0,1.3395806E1,3.239162E1,5.2021217E1,9.931434E0,5.673777E1,4.201111E0,1.4761585E1,1.3323218E2,2.6775406E2,2.4580602E2,2.4214952E1,3.5401215E1,3.3813725E0,1.030289E3,1.0388963E0,1.6864945E0,2.2917905E0,1.531342E1,1.4533193E0,1.0402234E0,1.1730454E1,1.6653514E0,3.043514E0,2.9348106E1,5.0761806E1,1.2594076E0,5.2399583E0,4.691475E0,5.422223E1,2.5155385E0,3.1486666E0,1.0524445E0,1.2234937E1,2.5266488E0,9.776779E1,3.546438E1,2.2422144E2,4.3532616E1,1.5874588E2,8.706014E1,1.8876728E1,5.3382244E0,2.517612E1,1.0225092E1,1.0345668E0,2.3468058E0,1.2318562E0,1.029057E3],"tree_param":{"num_deleted":"0","num_feature":"37","num_nodes":"91","size_leaf_vector":"1"}},{"base_weights":[-7.998181E-4,-1.3731387E0,1.0237149E0,-1.4182478E0,-6.059899E-1,-1.5894687E-1,1.2050667E0,-1.0552876E0,-1.4551872E0,9.6567416E-1,-1.277813E0,1.1891174E0,-3.7010518E-1,8.6439836E-1,1.400416E0,-1.4306226E0,8.772225E-1,-7.286038E-2,-8.617027E-1,1.3401308E0,-5.868674E-2,-1.3988558E0,6.098507E-1,1.357543E0,-5.061127E-2,7.7790534E-1,-5.5904156E-1,9.5763296E-1,-1.2292553E-1,-6.957897E-1,1.4088027E0,-7.256048E-2,-4.6849993E-1,1.2718838E0,-5.7859194E-2,-6.2267482E-2,2.9595105E-2,1.029318E-2,7.0177995E-2,-7.197061E-2,-4.0269366E-1,9.574545E-3,3.677817E-2,1.4008245E0,8.964857E-3,-6.2319565E-1,1.0634235E0,-1.2487738E0,-1.85268E-1,6.4071876E-1,1.2560275E0,9.364698E-1,-9.1263586E-1,-5.8117624E-2,2.5879607E-2,1.4148278E0,-5.3270843E-2,2.5334958E-2,-5.1775154E-2,1.2988717E-3,6.80472E-2,2.5177801E-2,-4.965022E-2,7.123506E-2,1.7555911E-2,-6.964755E-2,4.862356E-2,6.5261595E-2,9.577974E-3,-1.0233154E-2,-6.7465685E-2,-2.6776498E-2,1.8295644E-2,4.1409433E-2,-2.6388386E-2,7.19912E-2,4.042137E-2,7.032193E-2,-6.3925736E-2,-7.16814E-2,3.59448E-2,-2.670307E-4,7.082636E-2],"categories":[],"categories_nodes":[],"categories_segments":[],"categories_sizes":[],"default_left":[0,1,0,0,0,0,0,0,0,0,0,0,0,0,0,0,0,0,1,0,0,1,0,0,0,0,0,1,0,0,0,0,1,0,0,0,0,0,0,0,0,0,0,0,0,0,0,0,0,0,0,0,1,0,0,0,0,0,0,0,0,0,0,0,0,0,0,0,0,0,0,0,0,0,0,0,0,0,0,0,0,0,0],"id":9,"left_children":[1,3,5,7,9,11,13,15,17,19,21,23,25,27,29,31,33,-1,35,37,-1,39,41,43,-1,45,47,49,51,53,55,-1,57,59,-1,-1,-1,-1,-1,-1,61,-1,-1,63,-1,65,67,69,71,73,75,77,79,-1,-1,81,-1,-1,-1,-1,-1,-1,-1,-1,-1,-1,-1,-1,-1,-1,-1,-1,-1,-1,-1,-1,-1,-1,-1,-1,-1,-1,-1],"loss_changes":[4.640404E3,4.7960693E1,4.054933E2,1.6318604E1,8.580282E1,7.221003E1,1.07836426E2,9.311705E1,1.9067383E-1,2.1243454E1,1.37716675E1,1.4121731E1,4.7881416E1,5.5329803E1,1.926001E1,1.4282074E0,1.8507032E1,0E0,4.3837037E0,1.2480545E0,0E0,1.5792236E0,7.495737E-2,1.3993607E0,0E0,1.3196522E1,4.8343E1,5.103128E1,4.489256E1,3.326327E0,1.6950928E1,0E0,2.5740921E0,1.9892597E0,0E0,0E0,0E0,0E0,0E0,0E0,2.3611064E0,0E0,0E0,2.7853394E-1,0E0,8.643691E0,5.3150787E0,6.656952E0,2.401361E1,5.9114983E1,2.197641E1,2.5713589E1,2.7095554E1,0E0,0E0,2.5026855E0,0E0,0E0,0E0,0E0,0E0,0E0,0E0,0E0,0E0,0E0,0E0,0E0,0E0,0E0,0E0,0E0,0E0,0E0,0E0,0E0,0E0,0E0,0E0,0E0,0E0,0E0,0E0],"parents":[2147483647,0,0,1,1,2,2,3,3,4,4,5,5,6,6,7,7,8,8,9,9,10,10,11,11,12,12,13,13,14,14,15,15,16,16,18,18,19,19,21,21,22,22,23,23,25,25,26,26,27,27,28,28,29,29,30,30,32,32,33,33,40,40,43,43,45,45,46,46,47,47,48,48,49,49,50,50,51,51,52,52,55,55],"right_children":[2,4,6,8,10,12,14,16,18,20,22,24,26,28,30,32,34,-1,36,38,-1,40,42,44,-1,46,48,50,52,54,56,-1,58,60,-1,-1,-1,-1,-1,-1,62,-1,-1,64,-1,66,68,70,72,74,76,78,80,-1,-1,82,-1,-1,-1,-1,-1,-1,-1,-1,-1,-1,-1,-1,-1,-1,-1,-1,-1,-1,-1,-1,-1,-1,-1,-1,-1,-1,-1],"split_conditions":[6.57E2,5.54E1,1.618E2,6.773E1,7.77E2,1.118E3,7.415E3,1.8E2,8.03E-1,2E-1,2.233E2,3.019E1,2E0,3.437E1,9.34E0,1.61E2,2E-1,-7.286038E-2,2.18E1,2.22E0,-5.868674E-2,8.46E1,5.22E1,5.9E0,-5.061127E-2,1.019E3,1.163E2,2.392E2,2E-1,2.233E2,1E1,-7.256048E-2,1.2E1,1.44E0,-5.7859194E-2,-6.2267482E-2,2.9595105E-2,1.029318E-2,7.0177995E-2,-7.197061E-2,3.208E1,9.574545E-3,3.677817E-2,2.67E2,8.964857E-3,6.6E0,3.576E1,2.84E1,9E0,5.8E0,4.44E1,1.2E1,1.0882E3,-5.8117624E-2,2.5879607E-2,6.35E1,-5.3270843E-2,2.5334958E-2,-5.1775154E-2,1.2988717E-3,6.80472E-2,2.5177801E-2,-4.965022E-2,7.123506E-2,1.7555911E-2,-6.964755E-2,4.862356E-2,6.5261595E-2,9.577974E-3,-1.0233154E-2,-6.7465685E-2,-2.6776498E-2,1.8295644E-2,4.1409433E-2,-2.6388386E-2,7.19912E-2,4.042137E-2,7.032193E-2,-6.3925736E-2,-7.16814E-2,3.59448E-2,-2.670307E-4,7.082636E-2],"split_indices":[33,22,22,7,19,19,33,33,23,12,22,6,5,6,20,33,12,0,17,20,0,21,18,12,0,33,22,22,13,22,0,0,17,20,0,0,0,0,0,0,6,0,0,1,0,26,18,27,0,11,13,5,22,0,0,21,0,0,0,0,0,0,0,0,0,0,0,0,0,0,0,0,0,0,0,0,0,0,0,0,0,0,0],"split_type":[0,0,0,0,0,0,0,0,0,0,0,0,0,0,0,0,0,0,0,0,0,0,0,0,0,0,0,0,0,0,0,0,0,0,0,0,0,0,0,0,0,0,0,0,0,0,0,0,0,0,0,0,0,0,0,0,0,0,0,0,0,0,0,0,0,0,0,0,0,0,0,0,0,0,0,0,0,0,0,0,0,0,0],"sum_hessian":[3.2984734E3,1.409759E3,1.8887144E3,1.3306658E3,7.909324E1,2.5112955E2,1.6375848E3,1.2564719E2,1.2050186E3,2.3553873E1,5.5539364E1,3.33821E1,2.1774744E2,5.98788E2,1.0387968E3,1.0543011E2,2.0217081E1,1.1994796E3,5.538943E0,2.036332E1,3.190555E0,5.2435955E1,3.103408E0,3.1365618E1,2.0164835E0,3.0331385E1,1.8741606E2,5.471499E2,5.163817E1,3.8129528E0,1.0349839E3,1.0272373E2,2.7063704E0,1.7246237E1,2.970843E0,4.495676E0,1.0432664E0,1.3032684E0,1.9060051E1,4.995711E1,2.4788437E0,1.3000865E0,1.8033216E0,3.0072046E1,1.2935708E0,4.9344172E0,2.5396967E1,6.504541E1,1.2237065E2,2.6686707E2,2.8028284E2,2.1974102E1,2.9664066E1,2.784376E0,1.028577E0,1.0328969E3,2.0870528E0,1.0341214E0,1.6722491E0,1.236728E0,1.600951E1,1.0357368E0,1.4431069E0,2.9053947E1,1.0180985E0,3.4143596E0,1.5200579E0,1.9493467E1,5.9035006E0,5.979864E0,5.9065544E1,7.484003E1,4.753062E1,2.302219E2,3.6645157E1,1.9712238E2,8.316045E1,1.8428938E1,3.5451634E0,2.2576181E1,7.087885E0,1.2319373E0,1.0316649E3],"tree_param":{"num_deleted":"0","num_feature":"37","num_nodes":"83","size_leaf_vector":"1"}},{"base_weights":[-8.6612854E-4,-1.3418686E0,9.932641E-1,-1.386174E0,-5.90567E-1,-1.5732713E-2,1.1965928E0,-1.0302753E0,-1.422435E0,9.3978983E-1,-1.245812E0,-6.947688E-1,3.302443E-1,8.824672E-1,1.3728893E0,-1.397977E0,8.513401E-1,-7.122292E-2,-8.355444E-1,1.3075625E0,-5.7260152E-2,-1.3662734E0,5.926212E-1,2.013518E-2,-1.221915E0,7.887194E-1,-1.9338065E-1,9.9740905E-1,-1.15718015E-1,1.3789932E0,-5.2006483E-2,-7.092857E-2,-4.54827E-1,1.2378423E0,-5.645535E-2,2.9421529E-2,-6.08931E-2,1.0005316E-2,6.8551876E-2,-7.033877E-2,-3.9146137E-1,9.307491E-3,3.575715E-2,-1.2936721E0,5.794082E-1,-1.3695937E0,-4.119186E-1,9.733074E-1,-9.419478E-1,-8.4055316E-1,7.310616E-1,7.3412156E-1,1.2852242E0,9.146362E-1,-8.222053E-1,-5.766108E-1,1.3861727E0,-5.07874E-2,2.5197962E-2,-1.5069339E-4,6.644481E-2,2.4560457E-2,-4.84822E-2,-7.2438255E-2,-3.7828374E-3,-5.7806678E-2,3.9481703E-2,-7.0653625E-2,1.0259282E-2,-6.678123E-2,3.2751124E-2,1.6810562E-2,5.966357E-2,-8.317903E-2,3.421383E-2,-7.741379E-2,-1.2700522E-2,4.5554698E-2,-4.6890292E-2,4.554603E-2,-7.7546216E-3,7.2324805E-2,5.048818E-2,6.867551E-2,-3.1072587E-2,-6.872003E-2,4.576554E-2,-5.368138E-2,2.5701508E-2,-2.5965623E-4,6.939647E-2],"categories":[],"categories_nodes":[],"categories_segments":[],"categories_sizes":[],"default_left":[0,1,0,0,0,0,0,0,0,0,0,0,0,0,0,0,0,0,0,0,0,1,0,1,0,0,0,1,0,0,0,0,0,0,0,0,0,0,0,0,0,0,0,0,0,0,0,0,0,0,0,0,0,0,1,0,0,0,0,0,0,0,0,0,0,0,0,0,0,0,0,0,0,0,0,0,0,0,0,0,0,0,0,0,0,0,0,0,0,0,0],"id":10,"left_children":[1,3,5,7,9,11,13,15,17,19,21,23,25,27,29,31,33,-1,35,37,-1,39,41,43,45,47,49,51,53,55,-1,-1,57,59,-1,-1,-1,-1,-1,-1,61,-1,-1,63,65,67,69,71,73,75,77,79,81,83,85,87,89,-1,-1,-1,-1,-1,-1,-1,-1,-1,-1,-1,-1,-1,-1,-1,-1,-1,-1,-1,-1,-1,-1,-1,-1,-1,-1,-1,-1,-1,-1,-1,-1,-1,-1],"loss_changes":[4.298177E3,4.487085E1,3.7987415E2,1.5251953E1,7.956529E1,7.341534E1,8.4128174E1,8.657289E1,2.0263672E-1,1.99069E1,1.3027817E1,3.9772366E1,4.9858765E1,6.399408E1,1.5945679E1,1.3673401E0,1.73154E1,0E0,4.227508E0,1.1930809E0,0E0,1.505539E0,7.057357E-2,3.4363758E1,6.6995697E0,3.6245735E1,5.89225E1,3.689792E1,4.325384E1,1.4603516E1,0E0,0E0,2.4942749E0,2.023796E0,0E0,0E0,0E0,0E0,0E0,0E0,2.2436757E0,0E0,0E0,2.5291805E0,1.2872401E1,3.7770615E0,1.151283E1,1.367189E1,1.4242697E1,2.3596954E1,1.3073109E1,4.1508545E1,9.078522E0,1.7927824E1,3.499587E1,2.8841298E0,2.4023438E0,0E0,0E0,0E0,0E0,0E0,0E0,0E0,0E0,0E0,0E0,0E0,0E0,0E0,0E0,0E0,0E0,0E0,0E0,0E0,0E0,0E0,0E0,0E0,0E0,0E0,0E0,0E0,0E0,0E0,0E0,0E0,0E0,0E0,0E0],"parents":[2147483647,0,0,1,1,2,2,3,3,4,4,5,5,6,6,7,7,8,8,9,9,10,10,11,11,12,12,13,13,14,14,15,15,16,16,18,18,19,19,21,21,22,22,23,23,24,24,25,25,26,26,27,27,28,28,29,29,32,32,33,33,40,40,43,43,44,44,45,45,46,46,47,47,48,48,49,49,50,50,51,51,52,52,53,53,54,54,55,55,56,56],"right_children":[2,4,6,8,10,12,14,16,18,20,22,24,26,28,30,32,34,-1,36,38,-1,40,42,44,46,48,50,52,54,56,-1,-1,58,60,-1,-1,-1,-1,-1,-1,62,-1,-1,64,66,68,70,72,74,76,78,80,82,84,86,88,90,-1,-1,-1,-1,-1,-1,-1,-1,-1,-1,-1,-1,-1,-1,-1,-1,-1,-1,-1,-1,-1,-1,-1,-1,-1,-1,-1,-1,-1,-1,-1,-1,-1,-1],"split_conditions":[6.57E2,5.54E1,1.763E2,6.773E1,7.77E2,1.243E2,7.562E3,1.8E2,8.03E-1,2E-1,2.233E2,2.862E1,7.938E3,4.56E2,1E1,1.61E2,2E-1,-7.122292E-2,6.791E1,2.22E0,-5.7260152E-2,8.46E1,5.22E1,7.47E1,7E0,6.9E0,6.501E3,2.897E2,2E-1,9.34E0,-5.2006483E-2,-7.092857E-2,1.82E1,1.94E2,-5.645535E-2,2.9421529E-2,-6.08931E-2,1.0005316E-2,6.8551876E-2,-7.033877E-2,5.27E2,9.307491E-3,3.575715E-2,2.82E1,6.826E1,2.84E1,1.745E3,5.74E1,2.13E1,2.3E2,7.6E0,7.1E0,3.29E1,1.2E1,1.28E3,8.85E1,6.35E1,-5.07874E-2,2.5197962E-2,-1.5069339E-4,6.644481E-2,2.4560457E-2,-4.84822E-2,-7.2438255E-2,-3.7828374E-3,-5.7806678E-2,3.9481703E-2,-7.0653625E-2,1.0259282E-2,-6.678123E-2,3.2751124E-2,1.6810562E-2,5.966357E-2,-8.317903E-2,3.421383E-2,-7.741379E-2,-1.2700522E-2,4.5554698E-2,-4.6890292E-2,4.554603E-2,-7.7546216E-3,7.2324805E-2,5.048818E-2,6.867551E-2,-3.1072587E-2,-6.872003E-2,4.576554E-2,-5.368138E-2,2.5701508E-2,-2.5965623E-4,6.939647E-2],"split_indices":[33,22,22,7,19,22,33,33,23,12,22,6,19,8,0,33,12,0,7,20,0,21,18,21,9,12,33,22,13,20,0,0,17,1,0,0,0,0,0,0,33,0,0,15,7,15,19,27,17,1,12,11,13,5,22,16,21,0,0,0,0,0,0,0,0,0,0,0,0,0,0,0,0,0,0,0,0,0,0,0,0,0,0,0,0,0,0,0,0,0,0],"split_type":[0,0,0,0,0,0,0,0,0,0,0,0,0,0,0,0,0,0,0,0,0,0,0,0,0,0,0,0,0,0,0,0,0,0,0,0,0,0,0,0,0,0,0,0,0,0,0,0,0,0,0,0,0,0,0,0,0,0,0,0,0,0,0,0,0,0,0,0,0,0,0,0,0,0,0,0,0,0,0,0,0,0,0,0,0,0,0,0,0,0,0],"sum_hessian":[3.222122E3,1.371597E3,1.850525E3,1.2944182E3,7.717882E1,3.10521E2,1.540004E3,1.2240813E2,1.1720101E3,2.3008076E1,5.4170742E1,1.044712E2,2.060498E2,5.557581E2,9.8424585E2,1.0261278E2,1.9795351E1,1.1665612E3,5.448956E0,1.9875158E1,3.1329176E0,5.1080566E1,3.0901737E0,4.474748E1,5.972372E1,1.0958937E2,9.6460434E1,4.9837106E2,5.7387062E1,9.821899E2,2.0559998E0,9.992671E1,2.6860673E0,1.6876682E1,2.9186692E0,1.039211E0,4.4097447E0,1.3025165E0,1.8572641E1,4.8617462E1,2.4631054E0,1.2992326E0,1.7909412E0,1.2968829E1,3.1778648E1,4.9929672E1,9.794048E0,9.942283E1,1.0166543E1,5.6792538E1,3.9667896E1,2.6213022E2,2.3624084E2,2.3223236E1,3.4163826E1,3.302518E0,9.788873E2,1.657163E0,1.0289044E0,1.2198464E0,1.5656836E1,1.0343943E0,1.4287112E0,1.1335947E1,1.6328821E0,2.9473124E0,2.8831335E1,4.8688107E1,1.241564E0,5.1144114E0,4.6796365E0,2.6165749E1,7.325708E1,7.025863E0,3.1406794E0,2.4994501E1,3.1798037E1,3.6215176E1,3.4527194E0,2.1863539E2,4.3494843E1,1.4632298E2,8.991787E1,1.7963005E1,5.2602315E0,2.6083338E1,8.080487E0,2.2793794E0,1.0231384E0,1.232016E0,9.7765533E2],"tree_param":{"num_deleted":"0","num_feature":"37","num_nodes":"91","size_leaf_vector":"1"}},{"base_weights":[-9.996152E-4,-1.3133457E0,9.649018E-1,-1.3569437E0,-5.7631516E-1,4.073454E-2,1.177737E0,-1.0073367E0,-1.392606E0,9.1573775E-1,-1.2162747E0,-6.7327565E-1,3.5258725E-1,8.2852834E-1,1.3221911E0,-1.3681563E0,8.270511E-1,-1.3946394E0,-8.107758E-1,1.2774557E0,-5.591954E-2,-1.3364109E0,5.7602966E-1,1.7072726E-2,-1.1879798E0,1.0484021E0,9.387476E-2,1.0627794E0,2.4774832E-1,-7.3880154E-1,1.3312336E0,-6.94413E-2,-4.4173178E-1,1.2060083E0,-5.5134512E-2,-6.987265E-2,-9.497105E-1,2.8658593E-2,-5.946943E-2,9.725763E-3,6.705854E-2,-6.8848506E-2,-3.8077936E-1,8.91338E-3,3.4879725E-2,7.7058136E-1,-8.9237374E-1,-1.3340931E0,-3.980309E-1,1.202489E0,-9.932244E-1,-1.078598E-1,1.0357655E0,1.1762239E0,-3.2114327E-1,-1.3038144E0,5.2636707E-1,2.5782093E-2,-5.8375563E-2,1.3368117E0,-5.080943E-2,2.5060007E-2,-4.983935E-2,1.0249847E-2,6.695023E-2,-6.244213E-2,4.1816156E-2,2.4427162E-2,-4.7662847E-2,4.8667833E-2,-5.5985834E-2,-6.197072E-2,1.2011899E-2,-6.887195E-2,9.978677E-3,-6.4987265E-2,3.138506E-2,6.602333E-2,-3.4028247E-2,2.0737855E-2,-7.293432E-2,2.045222E-2,-2.5359893E-2,-6.910432E-2,6.2191386E-2,-1.2498277E-2,6.129831E-2,-6.168734E-2,2.4569916E-2,-7.691687E-2,4.6273377E-2,-7.904059E-2,3.537424E-2,5.960725E-2,6.957071E-2],"categories":[],"categories_nodes":[],"categories_segments":[],"categories_sizes":[],"default_left":[0,1,0,0,0,0,0,0,0,0,0,0,0,0,0,0,0,0,0,0,0,1,0,0,0,0,0,0,0,1,0,0,0,0,0,0,1,0,0,0,0,0,0,0,0,0,0,0,0,0,1,0,0,0,1,0,0,0,0,0,0,0,0,0,0,0,0,0,0,0,0,0,0,0,0,0,0,0,0,0,0,0,0,0,0,0,0,0,0,0,0,0,0,0,0],"id":11,"left_children":[1,3,5,7,9,11,13,15,17,19,21,23,25,27,29,31,33,35,37,39,-1,41,43,45,47,49,51,53,55,57,59,-1,61,63,-1,-1,65,-1,-1,-1,-1,-1,67,-1,-1,69,71,73,75,77,79,81,83,85,87,89,91,-1,-1,93,-1,-1,-1,-1,-1,-1,-1,-1,-1,-1,-1,-1,-1,-1,-1,-1,-1,-1,-1,-1,-1,-1,-1,-1,-1,-1,-1,-1,-1,-1,-1,-1,-1,-1,-1],"loss_changes":[3.9868352E3,4.2066406E1,3.5631177E2,1.4284668E1,7.388488E1,7.598259E1,7.318762E1,8.061263E1,2.1704102E-1,1.8680347E1,1.2346527E1,3.6886505E1,4.2641087E1,5.8723846E1,2.0365112E1,1.3152313E0,1.6219616E1,9.2285156E-2,4.0121408E0,1.1448975E0,0E0,1.440361E0,7.274282E-2,3.173145E1,6.3310776E0,2.1407104E1,3.3205933E1,4.883615E1,5.5120502E1,3.3910334E0,1.4921265E1,0E0,2.4175692E0,2.0548306E0,0E0,0E0,6.518297E0,0E0,0E0,0E0,0E0,0E0,2.1806667E0,0E0,0E0,1.0791811E1,8.548128E0,3.5819778E0,1.0717401E1,1.4271439E1,3.9188933E0,3.0004442E1,1.7222294E1,2.0559387E1,1.8529068E1,1.1596149E1,4.213112E1,0E0,0E0,6.507202E0,0E0,0E0,0E0,0E0,0E0,0E0,0E0,0E0,0E0,0E0,0E0,0E0,0E0,0E0,0E0,0E0,0E0,0E0,0E0,0E0,0E0,0E0,0E0,0E0,0E0,0E0,0E0,0E0,0E0,0E0,0E0,0E0,0E0,0E0,0E0],"parents":[2147483647,0,0,1,1,2,2,3,3,4,4,5,5,6,6,7,7,8,8,9,9,10,10,11,11,12,12,13,13,14,14,15,15,16,16,17,17,18,18,19,19,21,21,22,22,23,23,24,24,25,25,26,26,27,27,28,28,29,29,30,30,32,32,33,33,36,36,42,42,45,45,46,46,47,47,48,48,49,49,50,50,51,51,52,52,53,53,54,54,55,55,56,56,59,59],"right_children":[2,4,6,8,10,12,14,16,18,20,22,24,26,28,30,32,34,36,38,40,-1,42,44,46,48,50,52,54,56,58,60,-1,62,64,-1,-1,66,-1,-1,-1,-1,-1,68,-1,-1,70,72,74,76,78,80,82,84,86,88,90,92,-1,-1,94,-1,-1,-1,-1,-1,-1,-1,-1,-1,-1,-1,-1,-1,-1,-1,-1,-1,-1,-1,-1,-1,-1,-1,-1,-1,-1,-1,-1,-1,-1,-1,-1,-1,-1,-1],"split_conditions":[6.57E2,5.54E1,1.823E2,6.773E1,7.77E2,1.243E2,6.913E3,1.8E2,8.03E-1,2E-1,2.233E2,2.862E1,3.378E3,8.2E0,9.34E0,1.61E2,2E-1,4.999E3,6.791E1,2.22E0,-5.591954E-2,8.46E1,6.42E0,2.922E3,7E0,1.64E1,1.0509E4,1.679E1,6.79E0,7.3E1,1E1,-6.94413E-2,6.23E1,7.98E1,-5.5134512E-2,-6.987265E-2,1.92E1,2.8658593E-2,-5.946943E-2,9.725763E-3,6.705854E-2,-6.8848506E-2,8.81E1,8.91338E-3,3.4879725E-2,6.32E-1,1.62E0,2.84E1,1.745E3,3.182E1,1.46E1,8.552E3,7.4E1,7.06E1,1.872E2,9E0,2.392E2,2.5782093E-2,-5.8375563E-2,3.376E2,-5.080943E-2,2.5060007E-2,-4.983935E-2,1.0249847E-2,6.695023E-2,-6.244213E-2,4.1816156E-2,2.4427162E-2,-4.7662847E-2,4.8667833E-2,-5.5985834E-2,-6.197072E-2,1.2011899E-2,-6.887195E-2,9.978677E-3,-6.4987265E-2,3.138506E-2,6.602333E-2,-3.4028247E-2,2.0737855E-2,-7.293432E-2,2.045222E-2,-2.5359893E-2,-6.910432E-2,6.2191386E-2,-1.2498277E-2,6.129831E-2,-6.168734E-2,2.4569916E-2,-7.691687E-2,4.6273377E-2,-7.904059E-2,3.537424E-2,5.960725E-2,6.957071E-2],"split_indices":[33,22,22,7,19,22,33,33,23,12,22,6,19,34,20,33,12,19,7,20,0,21,20,19,9,13,19,20,20,21,0,0,16,21,0,0,17,0,0,0,0,0,21,0,0,23,28,15,19,6,17,19,21,21,22,29,22,0,0,22,0,0,0,0,0,0,0,0,0,0,0,0,0,0,0,0,0,0,0,0,0,0,0,0,0,0,0,0,0,0,0,0,0,0,0],"split_type":[0,0,0,0,0,0,0,0,0,0,0,0,0,0,0,0,0,0,0,0,0,0,0,0,0,0,0,0,0,0,0,0,0,0,0,0,0,0,0,0,0,0,0,0,0,0,0,0,0,0,0,0,0,0,0,0,0,0,0,0,0,0,0,0,0,0,0,0,0,0,0,0,0,0,0,0,0,0,0,0,0,0,0,0,0,0,0,0,0,0,0,0,0,0,0],"sum_hessian":[3.1431921E3,1.3324568E3,1.8107354E3,1.257245E3,7.521178E1,3.391741E2,1.4715613E3,1.1908331E2,1.1381616E3,2.2446733E1,5.2765045E1,1.0275343E2,2.3642065E2,4.3257486E2,1.0389863E3,9.9722336E1,1.9360975E1,1.1328057E3,5.355996E0,1.937362E1,3.073115E0,4.968882E1,3.076226E0,4.4301186E1,5.8452248E1,6.3251503E1,1.7316916E2,3.0765555E2,1.2491931E2,4.186049E0,1.0348003E3,9.705773E1,2.664607E0,1.6496483E1,2.8644917E0,1.1235599E3,9.245689E0,1.0401286E0,4.3158674E0,1.30172E0,1.80719E1,4.724283E1,2.4459932E0,1.2974359E0,1.7787901E0,2.4311192E1,1.9989992E1,4.8746918E1,9.705332E0,5.9194916E1,4.0565844E0,1.4335155E2,2.981761E1,2.8448547E2,2.3170092E1,1.8457003E1,1.0646231E2,1.0145649E0,3.1714842E0,1.0327767E3,2.0235968E0,1.0232793E0,1.6413279E0,2.2327578E0,1.4263725E1,8.176953E0,1.068736E0,1.0294149E0,1.4165783E0,2.2394026E1,1.9171655E0,1.5229319E1,4.7606735E0,4.7506123E1,1.240794E0,5.0227375E0,4.682595E0,5.5986034E1,3.2088826E0,1.0349343E0,3.02165E0,6.246822E1,8.088332E1,1.9154826E0,2.7902128E1,9.452156E0,2.750333E2,1.0668933E1,1.2501159E1,1.6980568E1,1.4764348E0,7.814773E0,9.864754E1,2.8925146E2,7.4352527E2],"tree_param":{"num_deleted":"0","num_feature":"37","num_nodes":"95","size_leaf_vector":"1"}},{"base_weights":[-1.1638872E-3,-1.287243E0,9.37922E-1,-1.33022E0,-5.630862E-1,3.8631283E-2,1.1477785E0,-9.8613393E-1,-1.3653618E0,8.9329493E-1,-1.1888864E0,-6.5352696E-1,3.3793414E-1,8.428241E-1,1.3141527E0,-1.3408214E0,8.0503005E-1,-1.3674108E0,-7.8739756E-1,1.2495106E0,-5.465603E-2,-1.3089262E0,5.6002355E-1,1.5078231E-2,-1.1564939E0,1.0170037E0,8.956505E-2,9.5448714E-1,-9.424603E-2,1.3201874E0,-4.9673535E-2,-6.8081364E-2,-4.2917866E-1,1.177209E0,-5.388827E-2,-6.85124E-2,-9.2319906E-1,-5.827229E-2,2.8495146E-2,9.4542755E-3,6.5682106E-2,-6.748286E-2,-3.7051475E-1,8.665214E-3,3.3933472E-2,-1.2407863E0,5.4165363E-1,1.7778261E-1,-1.2317791E0,1.1684661E0,-9.590052E-1,-1.0237684E0,2.471201E-1,6.339451E-1,1.1799345E0,7.380292E-1,-8.9615136E-1,-1.1152038E-1,1.3285923E0,-4.892819E-2,2.4920871E-2,9.912129E-3,6.552331E-2,4.174042E-2,-6.1285418E-2,2.4293957E-2,-4.6870902E-2,-6.961729E-2,-3.6642037E-3,-5.559912E-2,3.7019175E-2,-4.5616083E-2,5.551778E-2,-6.371052E-2,2.4308385E-2,6.425198E-2,-3.2800704E-2,2.0239182E-2,-7.061475E-2,-7.607892E-2,3.3323657E-2,-1.240819E-3,4.5277342E-2,4.071712E-2,-1.4102046E-2,6.628723E-2,3.6319613E-2,-3.2822452E-2,6.577011E-2,-6.978837E-2,2.3785647E-2,5.4075267E-2,-6.5465465E-2,1.3651758E-2,6.657133E-2],"categories":[],"categories_nodes":[],"categories_segments":[],"categories_sizes":[],"default_left":[0,1,0,0,0,0,0,0,0,0,0,0,0,0,0,0,0,0,1,0,0,1,0,1,0,0,0,1,0,0,0,0,0,0,0,0,0,0,0,0,0,0,0,0,0,0,0,0,0,0,1,0,0,0,0,1,0,0,0,0,0,0,0,0,0,0,0,0,0,0,0,0,0,0,0,0,0,0,0,0,0,0,0,0,0,0,0,0,0,0,0,0,0,0,0],"id":12,"left_children":[1,3,5,7,9,11,13,15,17,19,21,23,25,27,29,31,33,35,37,39,-1,41,43,45,47,49,51,53,55,57,-1,-1,59,61,-1,-1,63,-1,-1,-1,-1,-1,65,-1,-1,67,69,71,73,75,77,79,81,83,85,87,89,91,93,-1,-1,-1,-1,-1,-1,-1,-1,-1,-1,-1,-1,-1,-1,-1,-1,-1,-1,-1,-1,-1,-1,-1,-1,-1,-1,-1,-1,-1,-1,-1,-1,-1,-1,-1,-1],"loss_changes":[3.702137E3,3.9512695E1,3.3431067E2,1.3410645E1,6.86963E1,6.987923E1,7.177197E1,7.521694E1,2.319336E-1,1.7551683E1,1.1720062E1,3.4267178E1,3.9611275E1,5.3437103E1,1.422937E1,1.2702942E0,1.5222915E1,1.2084961E-1,3.8764677E0,1.1024132E0,0E0,1.383255E0,6.874597E-2,3.0239786E1,6.0588303E0,1.9959007E1,3.0679047E1,3.2178925E1,3.7498432E1,1.1286255E1,0E0,0E0,2.343778E0,1.9716072E0,0E0,0E0,6.3643093E0,0E0,0E0,0E0,0E0,0E0,2.1197782E0,0E0,0E0,2.2889595E0,1.1404557E1,5.057996E0,4.640129E0,1.3373001E1,3.681428E0,1.9271315E1,2.737371E1,3.16754E1,1.6650146E1,2.3111515E1,2.0240303E1,1.0453904E1,2.3897705E0,0E0,0E0,0E0,0E0,0E0,0E0,0E0,0E0,0E0,0E0,0E0,0E0,0E0,0E0,0E0,0E0,0E0,0E0,0E0,0E0,0E0,0E0,0E0,0E0,0E0,0E0,0E0,0E0,0E0,0E0,0E0,0E0,0E0,0E0,0E0,0E0],"parents":[2147483647,0,0,1,1,2,2,3,3,4,4,5,5,6,6,7,7,8,8,9,9,10,10,11,11,12,12,13,13,14,14,15,15,16,16,17,17,18,18,19,19,21,21,22,22,23,23,24,24,25,25,26,26,27,27,28,28,29,29,32,32,33,33,36,36,42,42,45,45,46,46,47,47,48,48,49,49,50,50,51,51,52,52,53,53,54,54,55,55,56,56,57,57,58,58],"right_children":[2,4,6,8,10,12,14,16,18,20,22,24,26,28,30,32,34,36,38,40,-1,42,44,46,48,50,52,54,56,58,-1,-1,60,62,-1,-1,64,-1,-1,-1,-1,-1,66,-1,-1,68,70,72,74,76,78,80,82,84,86,88,90,92,94,-1,-1,-1,-1,-1,-1,-1,-1,-1,-1,-1,-1,-1,-1,-1,-1,-1,-1,-1,-1,-1,-1,-1,-1,-1,-1,-1,-1,-1,-1,-1,-1,-1,-1,-1,-1],"split_conditions":[6.57E2,5.54E1,1.823E2,6.773E1,7.77E2,1.243E2,7.562E3,1.8E2,8.03E-1,2E-1,2.233E2,2.862E1,3.378E3,4.56E2,1E1,1.61E2,2E-1,4.999E3,2.18E1,2.22E0,-5.465603E-2,8.46E1,5.22E1,7.47E1,2.35E1,1.64E1,6.6E-1,2.392E2,3.04E1,1.05E1,-4.9673535E-2,-6.8081364E-2,3.57E1,7.98E1,-5.388827E-2,-6.85124E-2,5.125E3,-5.827229E-2,2.8495146E-2,9.4542755E-3,6.5682106E-2,-6.748286E-2,3.35E1,8.665214E-3,3.3933472E-2,2.82E1,6.826E1,1.727E3,4.95E1,3.182E1,1.46E1,1.861E1,1.00951E4,5.8E0,4.78E1,3.25E2,5.194E3,9E0,6.47E1,-4.892819E-2,2.4920871E-2,9.912129E-3,6.552331E-2,4.174042E-2,-6.1285418E-2,2.4293957E-2,-4.6870902E-2,-6.961729E-2,-3.6642037E-3,-5.559912E-2,3.7019175E-2,-4.5616083E-2,5.551778E-2,-6.371052E-2,2.4308385E-2,6.425198E-2,-3.2800704E-2,2.0239182E-2,-7.061475E-2,-7.607892E-2,3.3323657E-2,-1.240819E-3,4.5277342E-2,4.071712E-2,-1.4102046E-2,6.628723E-2,3.6319613E-2,-3.2822452E-2,6.577011E-2,-6.978837E-2,2.3785647E-2,5.4075267E-2,-6.5465465E-2,1.3651758E-2,6.657133E-2],"split_indices":[33,22,22,7,19,22,33,33,23,12,22,6,19,8,0,33,12,19,17,20,0,21,18,21,27,13,28,22,13,20,0,0,14,21,0,0,19,0,0,0,0,0,18,0,0,15,7,19,26,6,17,20,19,11,31,22,33,5,21,0,0,0,0,0,0,0,0,0,0,0,0,0,0,0,0,0,0,0,0,0,0,0,0,0,0,0,0,0,0,0,0,0,0,0,0],"split_type":[0,0,0,0,0,0,0,0,0,0,0,0,0,0,0,0,0,0,0,0,0,0,0,0,0,0,0,0,0,0,0,0,0,0,0,0,0,0,0,0,0,0,0,0,0,0,0,0,0,0,0,0,0,0,0,0,0,0,0,0,0,0,0,0,0,0,0,0,0,0,0,0,0,0,0,0,0,0,0,0,0,0,0,0,0,0,0,0,0,0,0,0,0,0,0],"sum_hessian":[3.0633462E3,1.2926669E3,1.7706793E3,1.2194579E3,7.3208916E1,3.35246E2,1.4354333E3,1.1569626E2,1.1037617E3,2.187449E1,5.1334423E1,1.0084698E2,2.3439902E2,5.0883432E2,9.2659906E2,9.678271E1,1.8913551E1,1.0985015E3,5.260222E0,1.8862864E1,3.0116274E0,4.827271E1,3.061717E0,4.371099E1,5.7135986E1,6.1943546E1,1.7245546E2,4.5463995E2,5.4194363E1,9.2460895E2,1.990094E0,9.41406E1,2.6421065E0,1.610481E1,2.8087413E0,1.0894583E3,9.043139E0,4.2248316E0,1.0353904E0,1.3008842E0,1.756198E1,4.5844627E1,2.4280787E0,1.2965086E0,1.7652086E0,1.251258E1,3.1198412E1,2.9789371E0,5.4157047E1,5.791314E1,4.0304084E0,2.069813E1,1.5175734E2,1.893018E2,2.6533817E2,2.663269E1,2.7561672E1,5.3246493E0,9.192843E2,1.6248276E0,1.0172788E0,2.2275937E0,1.3877217E1,1.0693115E0,7.973828E0,1.0240376E0,1.404041E0,1.0904435E1,1.6081445E0,2.8540819E0,2.8344332E1,1.3834772E0,1.5954599E0,5.310374E1,1.0533068E0,5.4712975E1,3.200167E0,1.032123E0,2.9982853E0,1.606612E1,4.6320086E0,1.0808112E2,4.3676216E1,1.5824709E2,3.1054726E1,1.9933167E2,6.600651E1,7.758151E0,1.8874538E1,2.0190954E1,7.370718E0,2.7162666E0,2.608383E0,2.722436E0,9.165619E2],"tree_param":{"num_deleted":"0","num_feature":"37","num_nodes":"95","size_leaf_vector":"1"}},{"base_weights":[-1.2664049E-3,-1.2632787E0,9.1256607E-1,-1.305712E0,-5.5075854E-1,3.6687784E-2,1.1199785E0,-9.6653885E-1,-1.3403964E0,8.7227035E-1,-1.163392E0,-1.2522527E0,1.8703045E-1,8.16084E-1,1.287781E0,-1.3156837E0,7.843125E-1,-1.3424668E0,-7.651433E-1,1.2234713E0,-5.346188E-2,-1.2835423E0,5.445846E-1,-1.3089526E0,1.2119905E-2,1.158105E0,5.3073168E-2,9.239409E-1,-9.167152E-2,1.2937843E0,-4.859334E-2,-6.6834055E-2,-4.1713524E-1,1.1502151E0,-5.270924E-2,-6.7266874E-2,-8.979268E-1,-5.714072E-2,2.8331006E-2,9.190575E-3,6.440899E-2,-6.622742E-2,-3.6064446E-1,8.294033E-3,3.3122294E-2,-6.8251416E-2,-5.9606403E-1,1.2844738E0,-2.107721E-1,1.3026778E-1,-7.0330136E-2,6.570857E-1,1.1914485E0,7.1684414E-1,-8.713192E-1,-1.09342694E-1,1.3021269E0,-4.8051383E-2,2.4780346E-2,-2.57758E-3,6.226724E-2,4.0287E-2,-6.0091235E-2,-4.6104617E-2,2.416057E-2,1.3769492E-2,-4.994571E-2,1.5947772E-2,6.635656E-2,3.982122E-2,-6.841341E-2,3.2848652E-4,5.4276176E-2,4.21211E-2,-8.287278E-3,6.804395E-2,4.5674305E-2,-3.147204E-2,6.433747E-2,-6.827765E-2,2.2826567E-2,5.2898627E-2,-6.381436E-2,6.0159244E-2,6.7480125E-2],"categories":[],"categories_nodes":[],"categories_segments":[],"categories_sizes":[],"default_left":[0,1,0,0,0,0,0,0,0,0,0,1,0,0,0,0,0,0,1,0,0,1,0,1,0,0,0,1,0,0,0,0,0,0,0,0,0,0,0,0,0,0,1,0,0,0,0,0,0,0,0,0,0,1,0,0,0,0,0,0,0,0,0,0,0,0,0,0,0,0,0,0,0,0,0,0,0,0,0,0,0,0,0,0,0],"id":13,"left_children":[1,3,5,7,9,11,13,15,17,19,21,23,25,27,29,31,33,35,37,39,-1,41,43,45,-1,47,49,51,53,55,-1,-1,57,59,-1,-1,61,-1,-1,-1,-1,-1,63,-1,-1,-1,65,67,69,71,-1,73,75,77,79,81,83,-1,-1,-1,-1,-1,-1,-1,-1,-1,-1,-1,-1,-1,-1,-1,-1,-1,-1,-1,-1,-1,-1,-1,-1,-1,-1,-1,-1],"loss_changes":[3.4420435E3,3.717993E1,3.1444446E2,1.2613159E1,6.3944695E1,6.466293E1,7.0321655E1,7.027647E1,2.4743652E-1,1.6510511E1,1.1142105E1,3.2715187E0,3.8783722E1,4.9100616E1,1.3465942E1,1.231308E0,1.4303122E1,1.508789E-1,3.7472398E0,1.0647469E0,0E0,1.3328705E0,7.073498E-2,5.3520584E-1,0E0,6.524437E0,2.9870516E1,3.1166351E1,3.4712116E1,1.0654419E1,0E0,0E0,2.2727227E0,1.9742794E0,0E0,0E0,6.0625563E0,0E0,0E0,0E0,0E0,0E0,2.0608914E0,0E0,0E0,0E0,1.7621065E0,9.45652E-1,5.6532145E0,2.9669476E1,0E0,3.4647682E1,9.225006E0,2.1599014E1,1.8986528E1,9.837324E0,2.5700684E0,0E0,0E0,0E0,0E0,0E0,0E0,0E0,0E0,0E0,0E0,0E0,0E0,0E0,0E0,0E0,0E0,0E0,0E0,0E0,0E0,0E0,0E0,0E0,0E0,0E0,0E0,0E0,0E0],"parents":[2147483647,0,0,1,1,2,2,3,3,4,4,5,5,6,6,7,7,8,8,9,9,10,10,11,11,12,12,13,13,14,14,15,15,16,16,17,17,18,18,19,19,21,21,22,22,23,23,25,25,26,26,27,27,28,28,29,29,32,32,33,33,36,36,42,42,46,46,47,47,48,48,49,49,51,51,52,52,53,53,54,54,55,55,56,56],"right_children":[2,4,6,8,10,12,14,16,18,20,22,24,26,28,30,32,34,36,38,40,-1,42,44,46,-1,48,50,52,54,56,-1,-1,58,60,-1,-1,62,-1,-1,-1,-1,-1,64,-1,-1,-1,66,68,70,72,-1,74,76,78,80,82,84,-1,-1,-1,-1,-1,-1,-1,-1,-1,-1,-1,-1,-1,-1,-1,-1,-1,-1,-1,-1,-1,-1,-1,-1,-1,-1,-1,-1],"split_conditions":[6.57E2,5.54E1,1.823E2,6.773E1,7.77E2,8.32E1,7.562E3,1.8E2,8.03E-1,2E-1,2.233E2,2.48E1,1.186E3,4.56E2,1E1,1.61E2,2E-1,4.999E3,7.89E1,2.22E0,-5.346188E-2,8.46E1,6.42E0,8.36E1,1.2119905E-2,5.9E0,3.415E1,2.897E2,3.04E1,1.05E1,-4.859334E-2,-6.6834055E-2,2.52E2,1.44E0,-5.270924E-2,-6.7266874E-2,5.125E3,-5.714072E-2,2.8331006E-2,9.190575E-3,6.440899E-2,-6.622742E-2,1.85E1,8.294033E-3,3.3122294E-2,-6.8251416E-2,8.41E1,6.92E1,8.46E1,1.0509E4,-7.0330136E-2,7.1E0,3.29E1,3.25E2,5.194E3,9E0,1.061E4,-4.8051383E-2,2.4780346E-2,-2.57758E-3,6.226724E-2,4.0287E-2,-6.0091235E-2,-4.6104617E-2,2.416057E-2,1.3769492E-2,-4.994571E-2,1.5947772E-2,6.635656E-2,3.982122E-2,-6.841341E-2,3.2848652E-4,5.4276176E-2,4.21211E-2,-8.287278E-3,6.804395E-2,4.5674305E-2,-3.147204E-2,6.433747E-2,-6.827765E-2,2.2826567E-2,5.2898627E-2,-6.381436E-2,6.0159244E-2,6.7480125E-2],"split_indices":[33,22,22,7,19,22,33,33,23,12,22,17,19,8,0,33,12,19,21,20,0,21,20,21,0,12,6,22,13,20,0,0,1,20,0,0,19,0,0,0,0,0,17,0,0,0,21,21,16,19,0,11,13,22,33,5,33,0,0,0,0,0,0,0,0,0,0,0,0,0,0,0,0,0,0,0,0,0,0,0,0,0,0,0,0],"split_type":[0,0,0,0,0,0,0,0,0,0,0,0,0,0,0,0,0,0,0,0,0,0,0,0,0,0,0,0,0,0,0,0,0,0,0,0,0,0,0,0,0,0,0,0,0,0,0,0,0,0,0,0,0,0,0,0,0,0,0,0,0,0,0,0,0,0,0,0,0,0,0,0,0,0,0,0,0,0,0,0,0,0,0,0,0],"sum_hessian":[2.9826006E3,1.2525011E3,1.7300996E3,1.1813168E3,7.118429E1,3.3147916E2,1.3986205E3,1.1227411E2,1.0690427E3,2.1295397E1,4.988889E1,3.38596E1,2.9761957E2,4.996341E2,8.989864E2,9.381466E1,1.8459446E1,1.0638799E3,5.162808E0,1.8346514E1,2.9488814E0,4.68422E1,3.0466871E0,3.2741776E1,1.1178238E0,3.5152073E1,2.624675E2,4.4655762E2,5.3076496E1,8.9703064E2,1.9557165E0,9.1195984E1,2.6186736E0,1.5707641E1,2.7518046E0,1.0550405E3,8.839286E0,4.1327047E0,1.0301033E0,1.3000137E0,1.7046501E1,4.4432766E1,2.409436E0,1.2945496E0,1.7521375E0,2.9506052E1,3.235724E0,3.223769E1,2.9143858E0,2.5014915E2,1.2318323E1,2.2528168E2,2.2127592E2,2.6095407E1,2.6981089E1,5.230434E0,8.9180023E2,1.607739E0,1.0109346E0,1.1857853E0,1.4521855E1,1.0880833E0,7.7512026E0,1.3911443E0,1.0182917E0,1.1229439E0,2.1127799E0,1.7227049E0,3.0514984E1,1.7251695E0,1.1892161E0,2.2236192E2,2.778723E1,1.8384763E2,4.1434048E1,1.3505685E2,8.621908E1,7.7301164E0,1.8365292E1,1.9641874E1,7.339215E0,2.6614852E0,2.5689487E0,2.9770587E2,5.9409436E2],"tree_param":{"num_deleted":"0","num_feature":"37","num_nodes":"85","size_leaf_vector":"1"}},{"base_weights":[-1.3193311E-3,-1.2412218E0,8.8796836E-1,-1.2831811E0,-5.392276E-1,3.49632E-2,1.093852E0,-9.4845915E-1,-1.3174576E0,8.525001E-1,-1.1395713E0,-6.203957E-1,3.13784E-1,7.907058E-1,1.2633482E0,-1.2924967E0,7.63799E-1,-1.3195549E0,-7.4391216E-1,1.1991177E0,-5.2330285E-2,-1.2600209E0,5.2966833E-1,-1.2772168E0,-1.3975827E-1,7.0813155E-1,-9.5035404E-2,8.949348E-1,-8.9238845E-2,1.2693284E0,-4.7564033E-2,-6.579415E-2,-4.4668564E-1,1.1236073E0,-5.1590946E-2,-6.612327E-2,-8.739879E-1,-5.5943217E-2,2.761032E-2,8.934429E-3,6.322758E-2,-6.5069824E-2,-3.511471E-1,8.063579E-3,3.2241497E-2,7.519427E-3,-1.3330305E0,5.142013E-1,-8.922655E-1,8.891267E-1,-1.0070693E0,-7.0474166E-1,6.619067E-1,5.822166E-1,1.1198324E0,6.967909E-1,-8.479115E-1,-1.0727213E-1,1.2776198E0,2.4193166E-2,-4.624265E-2,1.0767346E-2,6.394632E-2,-5.9083063E-2,4.018471E-2,2.4026772E-2,-4.5362413E-2,-6.911128E-2,-1.4070824E-2,4.4866413E-2,-1.57667E-2,1.7122027E-2,-5.283323E-2,4.850298E-2,-1.1744317E-2,-8.2436326E-4,-8.1780985E-2,-6.159528E-2,3.200393E-3,4.2216726E-2,-4.1710395E-2,4.177821E-2,-1.4762625E-3,6.348825E-2,3.3318356E-2,-3.0183569E-2,6.300227E-2,-6.6882804E-2,2.190775E-2,5.1780373E-2,-6.2259346E-2,5.8837384E-2,6.631373E-2],"categories":[],"categories_nodes":[],"categories_segments":[],"categories_sizes":[],"default_left":[0,1,0,0,0,0,0,0,0,0,0,1,0,0,0,0,0,0,1,0,0,1,0,0,0,0,0,1,0,0,0,0,0,0,0,0,1,0,0,0,0,0,0,0,0,0,0,0,0,0,0,0,0,0,0,1,0,0,0,0,0,0,0,0,0,0,0,0,0,0,0,0,0,0,0,0,0,0,0,0,0,0,0,0,0,0,0,0,0,0,0,0,0],"id":14,"left_children":[1,3,5,7,9,11,13,15,17,19,21,23,25,27,29,31,33,35,37,39,-1,41,43,45,47,49,51,53,55,57,-1,-1,59,61,-1,-1,63,-1,-1,-1,-1,-1,65,-1,-1,-1,67,69,71,73,75,77,79,81,83,85,87,89,91,-1,-1,-1,-1,-1,-1,-1,-1,-1,-1,-1,-1,-1,-1,-1,-1,-1,-1,-1,-1,-1,-1,-1,-1,-1,-1,-1,-1,-1,-1,-1,-1,-1,-1],"loss_changes":[3.2028523E3,3.504358E1,2.9702856E2,1.1876343E1,5.9582985E1,6.0480938E1,6.901477E1,6.5693245E1,2.635498E-1,1.5547851E1,1.0607201E1,3.1014156E1,3.7488503E1,4.5141907E1,1.2759766E1,1.2287445E0,1.3438852E1,1.8005371E-1,3.5649674E0,1.0311775E0,0E0,1.2881165E0,6.7034125E-2,3.517418E0,2.9089025E1,3.7610912E1,5.347071E1,3.024942E1,3.216278E1,1.0071411E1,0E0,0E0,2.220576E0,2.0257473E0,0E0,0E0,5.922584E0,0E0,0E0,0E0,0E0,0E0,2.0039003E0,0E0,0E0,0E0,1.6888504E0,1.0377444E1,5.927004E0,1.0008026E1,7.2937946E0,2.6053997E1,1.4829596E1,2.883397E1,1.6456757E1,2.0209454E1,1.7838396E1,9.266143E0,2.685913E0,0E0,0E0,0E0,0E0,0E0,0E0,0E0,0E0,0E0,0E0,0E0,0E0,0E0,0E0,0E0,0E0,0E0,0E0,0E0,0E0,0E0,0E0,0E0,0E0,0E0,0E0,0E0,0E0,0E0,0E0,0E0,0E0,0E0,0E0],"parents":[2147483647,0,0,1,1,2,2,3,3,4,4,5,5,6,6,7,7,8,8,9,9,10,10,11,11,12,12,13,13,14,14,15,15,16,16,17,17,18,18,19,19,21,21,22,22,23,23,24,24,25,25,26,26,27,27,28,28,29,29,32,32,33,33,36,36,42,42,46,46,47,47,48,48,49,49,50,50,51,51,52,52,53,53,54,54,55,55,56,56,57,57,58,58],"right_children":[2,4,6,8,10,12,14,16,18,20,22,24,26,28,30,32,34,36,38,40,-1,42,44,46,48,50,52,54,56,58,-1,-1,60,62,-1,-1,64,-1,-1,-1,-1,-1,66,-1,-1,-1,68,70,72,74,76,78,80,82,84,86,88,90,92,-1,-1,-1,-1,-1,-1,-1,-1,-1,-1,-1,-1,-1,-1,-1,-1,-1,-1,-1,-1,-1,-1,-1,-1,-1,-1,-1,-1,-1,-1,-1,-1,-1,-1],"split_conditions":[6.57E2,5.54E1,1.823E2,6.773E1,7.77E2,1.243E2,7.562E3,1.8E2,8.03E-1,2E-1,2.233E2,7.47E1,7.938E3,4.56E2,1E1,2.3E0,2E-1,4.999E3,7.89E1,2.22E0,-5.2330285E-2,8.46E1,6.42E0,2.35E1,2.862E1,1.4E1,1.00951E4,2.392E2,3.04E1,1.05E1,-4.7564033E-2,-6.579415E-2,6.55E1,2.46E1,-5.1590946E-2,-6.612327E-2,1.92E1,-5.5943217E-2,2.761032E-2,8.934429E-3,6.322758E-2,-6.5069824E-2,3.208E1,8.063579E-3,3.2241497E-2,7.519427E-3,2.84E1,2.922E3,1.91E2,3.258E1,7.147E1,2.46E2,9.6E0,5E0,4.78E1,3.25E2,5.194E3,9E0,1.061E4,2.4193166E-2,-4.624265E-2,1.0767346E-2,6.394632E-2,-5.9083063E-2,4.018471E-2,2.4026772E-2,-4.5362413E-2,-6.911128E-2,-1.4070824E-2,4.4866413E-2,-1.57667E-2,1.7122027E-2,-5.283323E-2,4.850298E-2,-1.1744317E-2,-8.2436326E-4,-8.1780985E-2,-6.159528E-2,3.200393E-3,4.2216726E-2,-4.1710395E-2,4.177821E-2,-1.4762625E-3,6.348825E-2,3.3318356E-2,-3.0183569E-2,6.300227E-2,-6.6882804E-2,2.190775E-2,5.1780373E-2,-6.2259346E-2,5.8837384E-2,6.631373E-2],"split_indices":[33,22,22,7,19,22,33,33,23,12,22,21,19,8,0,20,12,19,21,20,0,21,20,27,6,31,19,22,13,20,0,0,21,14,0,0,17,0,0,0,0,0,6,0,0,0,15,19,1,6,7,1,12,4,31,22,33,5,33,0,0,0,0,0,0,0,0,0,0,0,0,0,0,0,0,0,0,0,0,0,0,0,0,0,0,0,0,0,0,0,0,0,0],"split_type":[0,0,0,0,0,0,0,0,0,0,0,0,0,0,0,0,0,0,0,0,0,0,0,0,0,0,0,0,0,0,0,0,0,0,0,0,0,0,0,0,0,0,0,0,0,0,0,0,0,0,0,0,0,0,0,0,0,0,0,0,0,0,0,0,0,0,0,0,0,0,0,0,0,0,0,0,0,0,0,0,0,0,0,0,0,0,0,0,0,0,0,0,0],"sum_hessian":[2.9027397E3,1.2122068E3,1.690533E3,1.1430565E3,6.9150154E1,3.2892407E2,1.3616088E3,1.0884229E2,1.0342142E3,2.0712963E1,4.843719E1,9.7806984E1,2.311171E2,4.903235E2,8.7128534E2,9.083609E1,1.80062E1,1.02915E3,5.0642605E0,1.7827707E1,2.8852568E0,4.5405926E1,3.0312629E0,4.06284E1,5.717858E1,1.17268074E2,1.1384903E2,4.3838052E2,5.194296E1,8.693647E2,1.9206673E0,8.785128E1,2.98481E0,1.5312178E1,2.6940238E0,1.020516E3,8.634057E0,4.0340223E0,1.0302383E0,1.2991126E0,1.6528595E1,4.3015793E1,2.3901336E0,1.2935734E0,1.7376895E0,1.4648883E0,3.916351E1,3.076191E1,2.6416674E1,1.06510284E2,1.0757791E1,6.309547E1,5.0753555E1,1.848864E2,2.5349413E2,2.5551579E1,2.639138E1,5.133503E0,8.6423114E2,1.009105E0,1.9757051E0,2.5846112E0,1.2727567E1,7.5458646E0,1.0881922E0,1.0122052E0,1.3779285E0,3.711296E1,2.0505507E0,2.0987125E1,9.774783E0,2.9767845E0,2.3439888E1,9.948405E1,7.0262365E0,4.57458E0,6.1832104E0,3.70715E1,2.6023972E1,4.5625847E1,5.1277094E0,1.3048238E2,5.4404022E1,1.8915292E2,6.4341194E1,7.7005405E0,1.7851038E1,1.9083946E1,7.3074346E0,2.6060202E0,2.5274825E0,2.8940826E2,5.748229E2],"tree_param":{"num_deleted":"0","num_feature":"37","num_nodes":"93","size_leaf_vector":"1"}},{"base_weights":[-1.4230045E-3,-1.2208275E0,8.651326E-1,-1.2623733E0,-5.284029E-1,3.30302E-2,1.0689454E0,-9.313538E-1,-1.2963256E0,8.338416E-1,-1.117235E0,-1.2086629E0,1.7287734E-1,7.214712E-1,1.2192932E0,-1.2710034E0,7.446988E-1,-1.2984542E0,-7.2372746E-1,1.1762581E0,-5.1255275E-2,-1.2381569E0,5.152603E-1,-1.2653971E0,1.1753469E-2,1.1087981E0,4.7818016E-2,-7.0053744E-1,8.093092E-1,-6.8669873E-1,1.2282125E0,-6.4728886E-2,-4.3476734E-1,1.0985883E0,-5.052769E-2,-6.5070644E-2,-8.5104364E-1,-5.4940015E-2,2.745382E-2,8.685603E-3,6.2127758E-2,-6.399945E-2,-3.420031E-1,7.7181095E-3,3.1485345E-2,-6.603703E-2,-5.740205E-1,1.2382612E0,-2.2460414E-1,1.2047591E-1,-6.810896E-2,-8.702791E-2,-1.5348597E-1,8.645209E-1,-1.0743427E0,-5.366204E-2,1.4846677E-2,1.2336617E0,-4.6581306E-2,2.4054466E-2,-4.5537967E-2,6.509705E-3,6.2061127E-2,3.8805522E-2,-5.8021247E-2,2.3445342E-2,-4.4392318E-2,1.3908108E-2,-4.8488256E-2,1.46156205E-2,6.4068735E-2,3.8035266E-2,-6.6696934E-2,2.3914341E-4,5.1559187E-2,1.0679755E-2,-9.350284E-2,5.3713042E-2,1.7091002E-2,-1.0277014E-1,2.1381328E-2,5.379626E-2,6.473433E-2],"categories":[],"categories_nodes":[],"categories_segments":[],"categories_sizes":[],"default_left":[0,1,0,0,0,0,0,0,0,0,0,1,0,0,0,0,0,0,1,0,0,1,0,1,0,0,0,0,0,0,0,0,0,0,0,0,0,0,0,0,0,0,0,0,0,0,0,0,0,0,0,0,0,0,0,0,0,0,0,0,0,0,0,0,0,0,0,0,0,0,0,0,0,0,0,0,0,0,0,0,0,0,0],"id":15,"left_children":[1,3,5,7,9,11,13,15,17,19,21,23,25,27,29,31,33,35,37,39,-1,41,43,45,-1,47,49,51,53,55,57,-1,59,61,-1,-1,63,-1,-1,-1,-1,-1,65,-1,-1,-1,67,69,71,73,-1,-1,75,77,79,-1,-1,81,-1,-1,-1,-1,-1,-1,-1,-1,-1,-1,-1,-1,-1,-1,-1,-1,-1,-1,-1,-1,-1,-1,-1,-1,-1],"loss_changes":[2.9836858E3,3.307715E1,2.79901E2,1.1221558E1,5.5570534E1,5.6781258E1,6.8385254E1,6.1533485E1,2.7954102E-1,1.4655908E1,1.0110767E1,3.0089111E0,3.4321575E1,5.088791E1,1.6551025E1,1.1890259E0,1.2641539E1,2.1020508E-1,3.4508345E0,1.0010834E0,0E0,1.2481232E0,6.865072E-2,4.6660995E-1,0E0,6.24617E0,2.6812057E1,1.337254E1,4.0437897E1,2.1988637E0,1.1977539E1,0E0,2.1567073E0,2.0385227E0,0E0,0E0,5.6474905E0,0E0,0E0,0E0,0E0,0E0,1.9080836E0,0E0,0E0,0E0,1.6663016E0,9.1688156E-1,5.284226E0,2.6155033E1,0E0,0E0,1.0989774E1,4.0155975E1,1.7476612E1,0E0,0E0,7.4450684E0,0E0,0E0,0E0,0E0,0E0,0E0,0E0,0E0,0E0,0E0,0E0,0E0,0E0,0E0,0E0,0E0,0E0,0E0,0E0,0E0,0E0,0E0,0E0,0E0,0E0],"parents":[2147483647,0,0,1,1,2,2,3,3,4,4,5,5,6,6,7,7,8,8,9,9,10,10,11,11,12,12,13,13,14,14,15,15,16,16,17,17,18,18,19,19,21,21,22,22,23,23,25,25,26,26,27,27,28,28,29,29,30,30,32,32,33,33,36,36,42,42,46,46,47,47,48,48,49,49,52,52,53,53,54,54,57,57],"right_children":[2,4,6,8,10,12,14,16,18,20,22,24,26,28,30,32,34,36,38,40,-1,42,44,46,-1,48,50,52,54,56,58,-1,60,62,-1,-1,64,-1,-1,-1,-1,-1,66,-1,-1,-1,68,70,72,74,-1,-1,76,78,80,-1,-1,82,-1,-1,-1,-1,-1,-1,-1,-1,-1,-1,-1,-1,-1,-1,-1,-1,-1,-1,-1,-1,-1,-1,-1,-1,-1],"split_conditions":[6.57E2,5.54E1,1.823E2,6.773E1,7.77E2,8.32E1,6.913E3,1.8E2,8.03E-1,2E-1,2.233E2,2.48E1,1.186E3,6.97E1,9.34E0,2.3E0,2E-1,4.999E3,2.18E1,2.22E0,-5.1255275E-2,8.46E1,5.22E1,8.36E1,1.1753469E-2,5.9E0,3.415E1,2.4E2,1.769E1,9.03E1,1E1,-6.4728886E-2,5E-1,7.98E1,-5.052769E-2,-6.5070644E-2,5.125E3,-5.4940015E-2,2.745382E-2,8.685603E-3,6.2127758E-2,-6.399945E-2,3.208E1,7.7181095E-3,3.1485345E-2,-6.603703E-2,7.4E-1,6.92E1,8.46E1,1.0509E4,-6.810896E-2,-8.702791E-2,7.308E1,8.2E0,4E0,-5.366204E-2,1.4846677E-2,3.376E2,-4.6581306E-2,2.4054466E-2,-4.5537967E-2,6.509705E-3,6.2061127E-2,3.8805522E-2,-5.8021247E-2,2.3445342E-2,-4.4392318E-2,1.3908108E-2,-4.8488256E-2,1.46156205E-2,6.4068735E-2,3.8035266E-2,-6.6696934E-2,2.3914341E-4,5.1559187E-2,1.0679755E-2,-9.350284E-2,5.3713042E-2,1.7091002E-2,-1.0277014E-1,2.1381328E-2,5.379626E-2,6.473433E-2],"split_indices":[33,22,22,7,19,22,33,33,23,12,22,17,19,21,20,20,12,19,17,20,0,21,18,21,0,12,6,25,20,21,0,0,11,21,0,0,19,0,0,0,0,0,6,0,0,0,28,21,16,19,0,0,7,34,29,0,0,22,0,0,0,0,0,0,0,0,0,0,0,0,0,0,0,0,0,0,0,0,0,0,0,0,0],"split_type":[0,0,0,0,0,0,0,0,0,0,0,0,0,0,0,0,0,0,0,0,0,0,0,0,0,0,0,0,0,0,0,0,0,0,0,0,0,0,0,0,0,0,0,0,0,0,0,0,0,0,0,0,0,0,0,0,0,0,0,0,0,0,0,0,0,0,0,0,0,0,0,0,0,0,0,0,0,0,0,0,0,0,0],"sum_hessian":[2.8216377E3,1.1720032E3,1.6496346E3,1.1048861E3,6.711703E1,3.2478873E2,1.324846E3,1.0542916E2,9.99457E2,2.0130243E1,4.6986782E1,3.210327E1,2.9268546E2,4.018696E2,9.229763E2,8.7865105E1,1.756406E1,9.9449225E2,4.964691E0,1.7309156E1,2.8210866E0,4.3971306E1,3.0154786E0,3.1008266E1,1.0950047E0,3.357208E1,2.5911337E2,2.2973665E1,3.7889594E2,3.9450505E0,9.1903125E2,8.4922935E1,2.942168E0,1.4928356E1,2.6357033E0,9.8606287E2,8.429417E0,3.9402716E0,1.0244195E0,1.2981849E0,1.6010973E1,4.160107E1,2.3702352E0,1.2915263E0,1.7239523E0,2.7867233E1,3.1410336E0,3.0665998E1,2.906079E0,2.472852E2,1.1828181E1,7.166826E0,1.5806839E1,3.68632E2,1.0263941E1,2.766707E0,1.1783435E0,9.171461E2,1.8851277E0,1.0025164E0,1.9396517E0,2.1620698E0,1.2766287E1,1.1056733E0,7.323744E0,1.0102894E0,1.3599459E0,1.0903114E0,2.0507221E0,1.675873E0,2.8990126E1,1.7055132E0,1.2005658E0,2.2030385E2,2.6981358E1,1.3743435E1,2.0634038E0,2.6231842E2,1.0631356E2,5.985708E0,4.278232E0,2.6104135E2,6.5610474E2],"tree_param":{"num_deleted":"0","num_feature":"37","num_nodes":"83","size_leaf_vector":"1"}},{"base_weights":[-1.6008812E-3,-1.2019689E0,8.418565E-1,-1.2431604E0,-5.1821107E-1,3.14634E-2,1.0441927E0,-9.155583E-1,-1.276813E0,8.1617117E-1,-1.0962281E0,-1.1845875E0,1.6539854E-1,7.394356E-1,1.2195534E0,-1.251068E0,7.269299E-1,-1.2789776E0,-7.043882E-1,1.1547264E0,-5.0231565E-2,-1.2177838E0,5.013226E-1,-1.2416966E0,1.1451169E-2,2.7887696E-1,-8.0398166E-1,8.412532E-1,-1.1523031E-1,1.2255073E0,-4.564132E-2,-6.365651E-2,-3.7611172E-1,1.0756702E0,-4.951444E-2,-6.409951E-2,-8.291961E-1,2.7296225E-2,-5.3983863E-2,8.4438715E-3,6.110078E-2,-6.300706E-2,-3.332785E-1,7.5039067E-3,3.0662645E-2,-6.486345E-2,-5.5943376E-1,8.9656204E-1,-1.3184775E-2,-1.2806383E0,6.53479E-2,5.7534087E-1,1.1158223E0,7.881992E-1,-7.258866E-1,-1.1904493E-1,1.2338264E0,2.3481308E-2,-4.4790115E-2,-6.094294E-3,5.8908205E-2,-5.713532E-2,3.8713347E-2,-4.371791E-2,2.3318537E-2,1.3550259E-2,-4.7500446E-2,4.9933154E-2,-4.7920063E-2,-2.5761534E-2,1.7081685E-2,-2.3961498E-4,-7.135887E-2,-6.849179E-2,3.769396E-2,3.8972158E-2,-7.0881234E-3,6.4723216E-2,4.1825145E-2,6.1610796E-2,-2.7552215E-2,-6.6481896E-2,3.1101633E-2,4.9826957E-2,-6.0784783E-2,5.6416392E-2,6.426468E-2],"categories":[],"categories_nodes":[],"categories_segments":[],"categories_sizes":[],"default_left":[0,1,0,0,0,0,0,0,0,0,0,1,0,0,0,0,0,0,0,0,0,1,0,1,0,0,0,1,0,0,0,0,0,0,0,0,1,0,0,0,0,0,1,0,0,0,0,0,0,0,0,0,0,0,0,0,0,0,0,0,0,0,0,0,0,0,0,0,0,0,0,0,0,0,0,0,0,0,0,0,0,0,0,0,0,0,0],"id":16,"left_children":[1,3,5,7,9,11,13,15,17,19,21,23,25,27,29,31,33,35,37,39,-1,41,43,45,-1,47,49,51,53,55,-1,-1,57,59,-1,-1,61,-1,-1,-1,-1,-1,63,-1,-1,-1,65,67,69,71,73,75,77,79,81,83,85,-1,-1,-1,-1,-1,-1,-1,-1,-1,-1,-1,-1,-1,-1,-1,-1,-1,-1,-1,-1,-1,-1,-1,-1,-1,-1,-1,-1,-1,-1],"loss_changes":[2.7797302E3,3.12677E1,2.6436963E2,1.0604858E1,5.1872528E1,5.2835243E1,6.8054565E1,5.76799E1,2.960205E-1,1.3827875E1,9.648926E0,2.882866E0,3.2346085E1,4.1328186E1,1.1497192E1,1.1795654E0,1.1908591E1,2.3913574E-1,3.3414047E0,9.739742E-1,0E0,1.2114182E0,6.520164E-2,4.5315933E-1,0E0,4.730401E1,1.2870571E1,3.0278015E1,2.8882908E1,9.270142E0,0E0,0E0,1.9732146E0,2.0497227E0,0E0,0E0,5.5223064E0,0E0,0E0,0E0,0E0,0E0,1.8570354E0,0E0,0E0,0E0,1.5873183E0,1.6899094E1,3.2057747E1,3.728466E0,1.2771566E1,3.1901009E1,9.260712E0,1.3271475E1,2.6169481E1,8.463199E0,2.951538E0,0E0,0E0,0E0,0E0,0E0,0E0,0E0,0E0,0E0,0E0,0E0,0E0,0E0,0E0,0E0,0E0,0E0,0E0,0E0,0E0,0E0,0E0,0E0,0E0,0E0,0E0,0E0,0E0,0E0,0E0],"parents":[2147483647,0,0,1,1,2,2,3,3,4,4,5,5,6,6,7,7,8,8,9,9,10,10,11,11,12,12,13,13,14,14,15,15,16,16,17,17,18,18,19,19,21,21,22,22,23,23,25,25,26,26,27,27,28,28,29,29,32,32,33,33,36,36,42,42,46,46,47,47,48,48,49,49,50,50,51,51,52,52,53,53,54,54,55,55,56,56],"right_children":[2,4,6,8,10,12,14,16,18,20,22,24,26,28,30,32,34,36,38,40,-1,42,44,46,-1,48,50,52,54,56,-1,-1,58,60,-1,-1,62,-1,-1,-1,-1,-1,64,-1,-1,-1,66,68,70,72,74,76,78,80,82,84,86,-1,-1,-1,-1,-1,-1,-1,-1,-1,-1,-1,-1,-1,-1,-1,-1,-1,-1,-1,-1,-1,-1,-1,-1,-1,-1,-1,-1,-1,-1],"split_conditions":[6.57E2,5.54E1,1.823E2,6.773E1,7.77E2,8.32E1,7.562E3,1.8E2,8.03E-1,2E-1,2.233E2,2.48E1,3.258E1,4.56E2,1E1,1.61E2,2E-1,4.999E3,6.791E1,2.22E0,-5.0231565E-2,8.46E1,6.42E0,8.36E1,1.1451169E-2,3.292E3,1.55E2,2.897E2,2E-1,1.05E1,-4.564132E-2,-6.365651E-2,6.55E1,1.94E2,-4.951444E-2,-6.409951E-2,1.92E1,2.7296225E-2,-5.3983863E-2,8.4438715E-3,6.110078E-2,-6.300706E-2,1.85E1,7.5039067E-3,3.0662645E-2,-6.486345E-2,7.4E-1,1.64E1,1.489E2,1.19E1,7.78E1,1.16E1,3.29E1,1.2E1,5.194E3,9E0,1.061E4,2.3481308E-2,-4.4790115E-2,-6.094294E-3,5.8908205E-2,-5.713532E-2,3.8713347E-2,-4.371791E-2,2.3318537E-2,1.3550259E-2,-4.7500446E-2,4.9933154E-2,-4.7920063E-2,-2.5761534E-2,1.7081685E-2,-2.3961498E-4,-7.135887E-2,-6.849179E-2,3.769396E-2,3.8972158E-2,-7.0881234E-3,6.4723216E-2,4.1825145E-2,6.1610796E-2,-2.7552215E-2,-6.6481896E-2,3.1101633E-2,4.9826957E-2,-6.0784783E-2,5.6416392E-2,6.426468E-2],"split_indices":[33,22,22,7,19,22,33,33,23,12,22,17,6,8,0,33,12,19,7,20,0,21,20,21,0,19,22,22,13,20,0,0,21,1,0,0,17,0,0,0,0,0,17,0,0,0,28,13,22,17,21,12,13,5,33,5,33,0,0,0,0,0,0,0,0,0,0,0,0,0,0,0,0,0,0,0,0,0,0,0,0,0,0,0,0,0,0],"split_type":[0,0,0,0,0,0,0,0,0,0,0,0,0,0,0,0,0,0,0,0,0,0,0,0,0,0,0,0,0,0,0,0,0,0,0,0,0,0,0,0,0,0,0,0,0,0,0,0,0,0,0,0,0,0,0,0,0,0,0,0,0,0,0,0,0,0,0,0,0,0,0,0,0,0,0,0,0,0,0,0,0,0,0,0,0,0,0],"sum_hessian":[2.7435237E3,1.1320374E3,1.6114863E3,1.0669436E3,6.509374E1,3.221945E2,1.2892917E3,1.02018486E2,9.649251E2,1.954986E1,4.554388E1,3.118737E1,2.9100714E2,4.728131E2,8.164787E2,8.491191E1,1.7106577E1,9.600602E2,4.8649087E0,1.6793192E1,2.7566676E0,4.254444E1,2.999437E0,3.0093233E1,1.0941372E0,2.6114865E2,2.985849E1,4.224962E2,5.0316917E1,8.1462946E2,1.8492604E0,8.2379616E1,2.5322974E0,1.4529466E1,2.5771108E0,9.5183496E2,8.225237E0,1.0181528E0,3.8467557E0,1.2972343E0,1.5495957E1,4.01949E1,2.3495438E0,1.2905196E0,1.7089174E0,2.699314E1,3.1000953E0,8.317371E1,1.7797493E2,1.8979065E1,1.0879426E1,2.1620407E2,2.0629211E2,2.0176397E1,3.0140518E1,4.9274764E0,8.0970197E2,1.000474E0,1.5318234E0,1.1305636E0,1.3398902E1,7.1204014E0,1.1048354E0,1.3456128E0,1.0039309E0,1.0895779E0,2.0105174E0,7.927204E1,3.9016705E0,7.351033E1,1.044646E2,2.06168E0,1.6917385E1,3.206419E0,7.673007E0,1.6823424E2,4.796984E1,1.23604866E2,8.268725E1,1.5212664E1,4.9637346E0,2.0825884E1,9.314633E0,2.487906E0,2.4395704E0,2.730078E2,5.3669415E2],"tree_param":{"num_deleted":"0","num_feature":"37","num_nodes":"87","size_leaf_vector":"1"}},{"base_weights":[-1.7110984E-3,-1.1844805E0,8.2069093E-1,-1.2253708E0,-5.0857824E-1,2.955364E-2,1.0218325E0,-9.0091145E-1,-1.2587532E0,7.9938054E-1,-1.0763959E0,-5.823989E-1,2.829833E-1,7.172057E-1,1.1996139E0,-1.2325768E0,7.089632E-1,-1.2609586E0,-6.8582666E-1,1.1343772E0,-4.9254503E-2,-1.1987339E0,4.8784283E-1,-1.2225024E0,-1.2876113E-1,6.6301435E-1,-1.0510565E-1,-4.562888E-2,8.244523E-1,1.2055655E0,-4.4740655E-2,-6.274984E-2,-3.662602E-1,1.0525918E0,-4.8546717E-2,-6.320162E-2,-8.081534E-1,2.661538E-2,-5.2951645E-2,8.209015E-3,6.0138997E-2,-6.2084615E-2,-3.248683E-1,7.1782E-3,2.995841E-2,7.456915E-3,-1.2793033E0,4.8317948E-1,-8.4163123E-1,8.3617854E-1,-9.418893E-1,-7.023907E-1,5.81949E-1,7.2436124E-1,-6.334525E-1,5.0701433E-1,1.0526035E0,-1.1691807E-1,1.2138609E0,1.4584893E-2,-4.177089E-2,7.3949075E-3,6.0824275E-2,-5.617972E-2,3.7401307E-2,-4.2818133E-2,2.275999E-2,-6.6541344E-2,-1.1741953E-2,-5.2577715E-2,3.3369347E-2,1.717978E-2,-5.0273176E-2,4.813198E-2,9.118765E-3,3.7317746E-4,-7.7922784E-2,-7.2347395E-2,-6.7616063E-3,-5.335463E-2,3.6059614E-2,4.670232E-2,-6.101618E-2,-6.0152132E-2,3.1952567E-2,3.8744446E-2,-4.5327E-3,6.0698744E-2,3.1261142E-2,4.885004E-2,-5.942231E-2,5.528454E-2,6.3348375E-2],"categories":[],"categories_nodes":[],"categories_segments":[],"categories_sizes":[],"default_left":[0,1,0,0,0,0,0,0,0,0,0,1,0,0,0,0,0,0,0,0,0,1,0,0,0,0,0,0,1,0,0,0,0,0,0,0,1,0,0,0,0,0,1,0,0,0,0,0,0,0,0,0,0,0,1,0,0,0,0,0,0,0,0,0,0,0,0,0,0,0,0,0,0,0,0,0,0,0,0,0,0,0,0,0,0,0,0,0,0,0,0,0,0],"id":17,"left_children":[1,3,5,7,9,11,13,15,17,19,21,23,25,27,29,31,33,35,37,39,-1,41,43,45,47,49,51,53,55,57,-1,-1,59,61,-1,-1,63,-1,-1,-1,-1,-1,65,-1,-1,-1,67,69,71,73,75,77,79,81,83,85,87,89,91,-1,-1,-1,-1,-1,-1,-1,-1,-1,-1,-1,-1,-1,-1,-1,-1,-1,-1,-1,-1,-1,-1,-1,-1,-1,-1,-1,-1,-1,-1,-1,-1,-1,-1],"loss_changes":[2.593359E3,2.9598022E1,2.5022388E2,1.0026489E1,4.8457687E1,4.9763607E1,6.7042725E1,5.4076164E1,3.125E-1,1.3057794E1,9.218121E0,2.7133526E1,3.352358E1,3.804358E1,1.0929321E1,1.1521454E0,1.1214189E1,2.6867676E-1,3.1847026E0,9.494152E-1,0E0,1.1782112E0,6.6643834E-2,3.2186623E0,2.4888897E1,3.267533E1,4.6816105E1,2.680526E1,2.8967926E1,8.79187E0,0E0,0E0,1.3258029E0,2.0645943E0,0E0,0E0,5.2697477E0,0E0,0E0,0E0,0E0,0E0,1.7697865E0,0E0,0E0,0E0,1.7013359E0,9.418848E0,5.449999E0,8.431137E0,6.8277454E0,2.5541956E1,1.2971102E1,1.1605814E1,2.5080688E1,2.7650883E1,1.552243E1,7.9913034E0,3.100586E0,0E0,0E0,0E0,0E0,0E0,0E0,0E0,0E0,0E0,0E0,0E0,0E0,0E0,0E0,0E0,0E0,0E0,0E0,0E0,0E0,0E0,0E0,0E0,0E0,0E0,0E0,0E0,0E0,0E0,0E0,0E0,0E0,0E0,0E0],"parents":[2147483647,0,0,1,1,2,2,3,3,4,4,5,5,6,6,7,7,8,8,9,9,10,10,11,11,12,12,13,13,14,14,15,15,16,16,17,17,18,18,19,19,21,21,22,22,23,23,24,24,25,25,26,26,27,27,28,28,29,29,32,32,33,33,36,36,42,42,46,46,47,47,48,48,49,49,50,50,51,51,52,52,53,53,54,54,55,55,56,56,57,57,58,58],"right_children":[2,4,6,8,10,12,14,16,18,20,22,24,26,28,30,32,34,36,38,40,-1,42,44,46,48,50,52,54,56,58,-1,-1,60,62,-1,-1,64,-1,-1,-1,-1,-1,66,-1,-1,-1,68,70,72,74,76,78,80,82,84,86,88,90,92,-1,-1,-1,-1,-1,-1,-1,-1,-1,-1,-1,-1,-1,-1,-1,-1,-1,-1,-1,-1,-1,-1,-1,-1,-1,-1,-1,-1,-1,-1,-1,-1,-1,-1],"split_conditions":[6.57E2,5.54E1,1.823E2,6.773E1,7.77E2,1.243E2,7.562E3,1.8E2,8.03E-1,2E-1,2.233E2,7.47E1,7.938E3,1.79E1,1E1,1.61E2,2E-1,4.999E3,6.791E1,2.22E0,-4.9254503E-2,8.46E1,5.22E1,2.35E1,2.862E1,1.4E1,6.501E3,2.03E1,2.392E2,1.05E1,-4.4740655E-2,-6.274984E-2,1E-1,2.46E1,-4.8546717E-2,-6.320162E-2,1.92E1,2.661538E-2,-5.2951645E-2,8.209015E-3,6.0138997E-2,-6.2084615E-2,1.85E1,7.1782E-3,2.995841E-2,7.456915E-3,2.84E1,6.826E1,1.91E2,3.216E1,7.147E1,2.3E2,7.3E1,7.403E3,1.0882E3,5E0,4.89E1,9E0,1.061E4,1.4584893E-2,-4.177089E-2,7.3949075E-3,6.0824275E-2,-5.617972E-2,3.7401307E-2,-4.2818133E-2,2.275999E-2,-6.6541344E-2,-1.1741953E-2,-5.2577715E-2,3.3369347E-2,1.717978E-2,-5.0273176E-2,4.813198E-2,9.118765E-3,3.7317746E-4,-7.7922784E-2,-7.2347395E-2,-6.7616063E-3,-5.335463E-2,3.6059614E-2,4.670232E-2,-6.101618E-2,-6.0152132E-2,3.1952567E-2,3.8744446E-2,-4.5327E-3,6.0698744E-2,3.1261142E-2,4.885004E-2,-5.942231E-2,5.528454E-2,6.3348375E-2],"split_indices":[33,22,22,7,19,22,33,33,23,12,22,21,19,15,0,33,12,19,7,20,0,21,18,27,6,31,33,13,22,20,0,0,11,14,0,0,17,0,0,0,0,0,17,0,0,0,15,7,1,6,7,1,21,19,22,4,18,5,33,0,0,0,0,0,0,0,0,0,0,0,0,0,0,0,0,0,0,0,0,0,0,0,0,0,0,0,0,0,0,0,0,0,0],"split_type":[0,0,0,0,0,0,0,0,0,0,0,0,0,0,0,0,0,0,0,0,0,0,0,0,0,0,0,0,0,0,0,0,0,0,0,0,0,0,0,0,0,0,0,0,0,0,0,0,0,0,0,0,0,0,0,0,0,0,0,0,0,0,0,0,0,0,0,0,0,0,0,0,0,0,0,0,0,0,0,0,0,0,0,0,0,0,0,0,0,0,0,0,0],"sum_hessian":[2.6641125E3,1.0924799E3,1.5716327E3,1.0293916E3,6.3088306E1,3.1881293E2,1.2528197E3,9.864107E1,9.307505E2,1.8974058E1,4.411425E1,9.298513E1,2.2582779E2,4.6355576E2,7.89264E2,8.198495E1,1.6656124E1,9.259853E2,4.7652507E0,1.62818E1,2.6922588E0,4.113108E1,2.9831688E0,3.786335E1,5.512178E1,1.1374048E2,1.120873E2,5.720889E1,4.0634686E2,7.8745074E2,1.8132098E0,7.94794E1,2.5055468E0,1.4137641E1,2.5184824E0,9.179622E2,8.02307E0,1.0175825E0,3.7476685E0,1.2962645E0,1.4985535E1,3.8802658E1,2.3284235E0,1.288381E0,1.6947879E0,1.440967E0,3.6422382E1,2.9833967E1,2.5287811E1,1.0309575E2,1.064473E1,5.9948914E1,5.213839E1,2.466627E1,3.254262E1,1.7127118E2,2.350757E2,4.8269873E0,7.826238E2,1.2003703E0,1.3051765E0,2.460127E0,1.1677514E1,6.9019995E0,1.1210716E0,1.326688E0,1.0017354E0,3.444884E1,1.9735415E0,2.6925259E0,2.7141441E1,2.9377477E0,2.2350063E1,8.599074E1,1.7105013E1,4.580239E0,6.0644903E0,2.5249945E1,3.4698967E1,3.5408623E0,4.859753E1,2.2734608E1,1.9316605E0,2.251789E1,1.0024731E1,1.1806017E2,5.321101E1,1.6930766E2,6.5768036E1,2.4321904E0,2.3947966E0,2.6489438E2,5.1772943E2],"tree_param":{"num_deleted":"0","num_feature":"37","num_nodes":"93","size_leaf_vector":"1"}},{"base_weights":[-1.8600018E-3,-1.168187E0,8.0046874E-1,-1.2088218E0,-4.9944913E-1,2.7624669E-2,1.0000066E0,-8.868954E-1,-1.2420058E0,7.8337497E-1,-1.0576214E0,-1.1481067E0,1.5256563E-1,6.498358E-1,1.1580113E0,-1.2153084E0,6.92258E-1,-1.2442554E0,-6.68077E-1,1.1150827E0,-4.831994E-2,-1.1808815E0,4.747887E-1,-1.2060124E0,1.1258492E-2,1.0468348E0,3.8866498E-2,-7.3153335E-1,7.374765E-1,-6.4315885E-1,1.1668527E0,-6.2006015E-2,-3.8773015E-1,1.0308836E0,-4.762056E-2,-6.236979E-2,-7.880259E-1,-5.2091915E-2,2.646922E-2,6.0537368E-2,3.037954E-1,-6.1225094E-2,-3.1683323E-1,6.979318E-3,2.9187307E-2,-6.309398E-2,-5.3761196E-1,1.2105772E0,-4.0747516E-2,-7.733272E-1,1.4712936E-1,-1.6963198E0,-1.6787523E-1,8.305584E-1,-3.6105087E-1,-5.079019E-2,1.4445372E-2,1.1722696E0,-4.387624E-2,-4.2917278E-2,2.0001883E-2,3.4497213E-3,5.922233E-2,3.7299596E-2,-5.539126E-2,3.2773595E-2,-1.0223246E-2,-3.9492566E-2,1.4013551E-2,1.3797249E-2,-4.6188857E-2,6.29834E-2,1.1441546E-2,2.9492233E-2,-5.766814E-2,